[{"path":"index.html","id":"citation-info","chapter":"Citation Info","heading":"Citation Info","text":"cite book, please use following information:package mlr3, please cite JOSS paper:","code":"@misc{\n  title = {mlr3 book},\n  author = {Marc Becker and Martin Binder and Bernd Bischl and Michel Lang and Florian Pfisterer and Nicholas G. Reich and Jakob Richter and Patrick Schratz and Raphael Sonabend and Damir Pulatov},\n  url = {https://mlr3book.mlr-org.com},\n  year = {2021},\n  month = {09},\n  day = {19},\n}\nprint(citation(\"mlr3\"), style = \"bibtex\")## @Article{mlr3,\n##   title = {{mlr3}: A modern object-oriented machine learning framework in {R}},\n##   author = {Michel Lang and Martin Binder and Jakob Richter and Patrick Schratz and Florian Pfisterer and Stefan Coors and Quay Au and Giuseppe Casalicchio and Lars Kotthoff and Bernd Bischl},\n##   journal = {Journal of Open Source Software},\n##   year = {2019},\n##   month = {dec},\n##   doi = {10.21105/joss.01903},\n##   url = {https://joss.theoj.org/papers/10.21105/joss.01903},\n## }"},{"path":"quickstart.html","id":"quickstart","chapter":"Quickstart","heading":"Quickstart","text":"30-second introductory example, train decision tree model first 120 rows iris data set make predictions final 30, measuring accuracy trained model.examples can found mlr3gallery, collection use cases examples.learning mlr3, highly recommend print cheatsheets.","code":"\nlibrary(\"mlr3\")\ntask = tsk(\"iris\")\nlearner = lrn(\"classif.rpart\")\n\n# train a model of this learner for a subset of the task\nlearner$train(task, row_ids = 1:120)\n# this is what the decision tree looks like\nlearner$model## n= 120 \n## \n## node), split, n, loss, yval, (yprob)\n##       * denotes terminal node\n## \n## 1) root 120 70 setosa (0.41667 0.41667 0.16667)  \n##   2) Petal.Length< 2.45 50  0 setosa (1.00000 0.00000 0.00000) *\n##   3) Petal.Length>=2.45 70 20 versicolor (0.00000 0.71429 0.28571)  \n##     6) Petal.Length< 4.95 49  1 versicolor (0.00000 0.97959 0.02041) *\n##     7) Petal.Length>=4.95 21  2 virginica (0.00000 0.09524 0.90476) *\npredictions = learner$predict(task, row_ids = 121:150)\npredictions## <PredictionClassif> for 30 observations:\n##     row_ids     truth   response\n##         121 virginica  virginica\n##         122 virginica versicolor\n##         123 virginica  virginica\n## ---                             \n##         148 virginica  virginica\n##         149 virginica  virginica\n##         150 virginica  virginica\n# accuracy of our model on the test set of the final 30 rows\npredictions$score(msr(\"classif.acc\"))## classif.acc \n##      0.8333"},{"path":"introduction.html","id":"introduction","chapter":"1 Introduction and Overview","heading":"1 Introduction and Overview","text":"mlr3 (Lang et al. 2019) package ecosystem provide generic, object-oriented, extensible framework classification, regression, survival analysis, machine learning tasks R language (R Core Team 2019).\nimplement learners , provide unified interface many existing learners R.\nunified interface provides functionality extend combine existing learners, intelligently select tune appropriate technique task, perform large-scale comparisons enable meta-learning.\nExamples advanced functionality include hyperparameter tuning feature selection. Parallelization many operations natively supported.Target Audiencemlr3 provides domain-specific language machine learning R.\ntarget practitioners want quickly apply machine learning algorithms researchers want implement, benchmark, compare new methods structured environment.\npackage complete rewrite earlier version mlr leverages many years experience provide state---art system easy use extend.\nintended users basic knowledge machine learning R interested complex projects use advanced functionality well one-liners quickly prototype specific tasks.Rewrite?mlr (Bischl et al. 2016) first released CRAN 2013, core design architecture dating back much .\ntime, addition many features led considerably complex design made harder build, maintain, extent hoped .\nhindsight, saw design architecture choices mlr made difficult support new features, particular respect pipelines.\nFurthermore, R ecosystem well helpful packages data.table undergone major changes meantime.\nnearly impossible integrate changes original design mlr.\nInstead, decided start working reimplementation 2018, resulted first release mlr3 CRAN July 2019.\nnew design integration newly developed R packages (especially R6, future, data.table) makes mlr3 much easier use, maintain, efficient compared predecessor mlr.Design PrinciplesWe follow general design principles mlr3 package ecosystem.Backend frontend.\npackages mlr3 ecosystem focus processing transforming data, applying machine learning algorithms, computing results.\nprovide graphical user interfaces (GUIs); visualizations data results provided extra packages.Embrace R6 clean, object-oriented design, object state-changes, reference semantics.Embrace data.table fast convenient data frame computations.Unify container result classes much possible provide result data data.tables.\nconsiderably simplifies API allows easy selection “split-apply-combine” (aggregation) operations.\ncombine data.table R6 place references non-atomic compound objects tables make heavy use list columns.Defensive programming type safety.\nuser input checked checkmate (Lang 2017).\nReturn types documented, mechanisms popular base R “simplify” result unpredictably (e.g., sapply() drop argument [.data.frame) avoided.light dependencies.\nOne main maintenance burdens mlr keep changing learner interfaces behavior many packages depended .\nrequire far fewer packages mlr3 make installation maintenance easier.Package Ecosystemmlr3 builds upon following packages developed core members mlr3 team:R6:\nReference class objects.data.table:\nExtension R’s data.frame.digest:\nHash digests.uuid:\nUnique string identifiers.lgr:\nLogging facility.mlbench:\ncollection machine learning data sets.packages well curated mature, problems packet dependencies expected .\nAdditionally, following packages suggested extra functionality:parallelization: future / future.apply.progress bars: progressr.capturing output, warnings, exceptions: evaluate callr.mlr3 provides base functionality fundamental building blocks machine learning, following packages extend mlr3 capabilities preprocessing, pipelining, visualizations, additional learners additional task types:complete list links respective repositories can found wiki page extension packages.","code":""},{"path":"basics.html","id":"basics","chapter":"2 Basics","heading":"2 Basics","text":"chapter teach essential building blocks mlr3, well R6 classes operations used machine learning.\ntypical machine learning workflow looks like :data, mlr3 encapsulates tasks, split non-overlapping training test sets.\nSince interested models extrapolate new data rather just memorizing training data, separate test data allows objectively evaluate models respect generalization.\ntraining data given machine learning algorithm, call learner mlr3.\nlearner uses training data build model relationship input features output target values.\nmodel used produce predictions test data, compared ground truth values assess quality model.\nmlr3 offers number different measures quantify well model performs based difference predicted actual values.\nUsually measure numeric score.process splitting data training test sets, building model, evaluating may repeated several times, resampling different training test sets original data time.\nMultiple resampling iterations allow us get better, generalizable performance estimate particular type model tested different conditions less likely get lucky unlucky particular way data resampled.many cases, simple workflow sufficient deal real-world data, may require normalization, imputation missing values, feature selection.\ncover complex workflows allow even later book.chapter covers following subtopics:TasksTasks encapsulate data meta-information, name prediction target column.\ncover :access predefined tasks,specify task type,create task,work task’s API,assign roles rows columns task,implement task mutators, andretrieve data stored task.LearnersLearners encapsulate machine learning algorithms train models make predictions task.\nprovided R packages.\ncover :access set classification regression learners come mlr3 retrieve specific learner,access set hyperparameter values learner modify .modify extend learners covered supplemental advanced technical section.Train predictThe section train predict methods illustrates use tasks learners train model make predictions new data set.\nparticular, cover :properly set tasks learners,set train test splits task,train learner training set produce model,generate predictions test set, andassess performance model comparing predicted actual values.ResamplingA resampling method create training test splits.\ncover toaccess select resampling strategies,instantiate split training test sets applying resampling, andexecute resampling obtain results.Additional information resampling can found section nested resampling chapter model optimization.BenchmarkingBenchmarking used compare performance different models, example models trained different learners, different tasks, different resampling methods.\ncover tocreate benchmarking design,execute design aggregate results, andconvert benchmarking objects resample objects.Binary classificationBinary classification special case classification target variable predict two possible values.\ncase, additional considerations apply; particular:ROC curves threshold predict one class versus , andthreshold tuning (WIP).get details use mlr3 machine learning, give brief introduction R6 relatively new part R.\nmlr3 heavily relies R6 basic building blocks provides R6 classes:tasks,learners,measures, andresamplings.","code":""},{"path":"basics.html","id":"r6","chapter":"2 Basics","heading":"2.1 Quick R6 Intro for Beginners","text":"R6 one R’s recent dialects object-oriented programming (OO).\naddresses shortcomings earlier OO implementations R, S3, used mlr.\ndone object-oriented programming , R6 feel familiar.\nfocus parts R6 need know use mlr3 .Objects created calling constructor R6::R6Class() object, specifically initialization method $new().\nexample, foo = Foo$new(bar = 1) creates new object class Foo, setting bar argument constructor value 1.\nobjects mlr3 created special functions (e.g. ‘lrn(“regr.rpart”)’) also referred sugar functions.Objects mutable state, encapsulated fields, can accessed dollar operator.\ncan access bar value Foo class foo$bar set value assigning field, e.g. foo$bar = 2.addition fields, objects expose methods may allow inspect object’s state, retrieve information, perform action may change internal state object.\nexample, $train method learner changes internal state learner building storing trained model, can used make predictions given data.Objects can public private fields methods.\npublic fields methods define API interact object.\nPrivate methods relevant want extend mlr3, e.g. new learners.R6 objects internally environments, reference semantics.\nexample, foo2 = foo create copy foo foo2, another reference actual object.\nSetting foo$bar = 3 also change foo2$bar 3 vice versa.copy object, use $clone() method deep = TRUE argument nested objects, example, foo2 = foo$clone(deep = TRUE).details R6, look excellent R6 vignettes, especially introduction.","code":""},{"path":"basics.html","id":"tasks","chapter":"2 Basics","heading":"2.2 Tasks","text":"Tasks objects contain (usually tabular) data additional meta-data define machine learning problem.\nmeta-data , example, name target variable supervised machine learning problems, type dataset (e.g. spatial survival).\ninformation used specific operations can performed task.","code":""},{"path":"basics.html","id":"tasks-types","chapter":"2 Basics","heading":"2.2.1 Task Types","text":"create task data.frame(), data.table() Matrix(), first need select right task type:Classification Task: target label (stored character()orfactor()) distinct values.\n→ TaskClassif.Classification Task: target label (stored character()orfactor()) distinct values.\n→ TaskClassif.Regression Task: target numeric quantity (stored integer() double()).\n→ TaskRegr.Regression Task: target numeric quantity (stored integer() double()).\n→ TaskRegr.Survival Task: target (right-censored) time event. censoring types currently development.\n→ mlr3proba::TaskSurv add-package mlr3proba.Survival Task: target (right-censored) time event. censoring types currently development.\n→ mlr3proba::TaskSurv add-package mlr3proba.Density Task: unsupervised task estimate density.\n→ mlr3proba::TaskDens add-package mlr3proba.Density Task: unsupervised task estimate density.\n→ mlr3proba::TaskDens add-package mlr3proba.Cluster Task: unsupervised task type; target aim identify similar groups within feature space.\n→ mlr3cluster::TaskClust add-package mlr3cluster.Cluster Task: unsupervised task type; target aim identify similar groups within feature space.\n→ mlr3cluster::TaskClust add-package mlr3cluster.Spatial Task: Observations task spatio-temporal information (e.g. coordinates).\n→ mlr3spatiotempcv::TaskRegrST mlr3spatiotempcv::TaskClassifST add-package mlr3spatiotempcv.Spatial Task: Observations task spatio-temporal information (e.g. coordinates).\n→ mlr3spatiotempcv::TaskRegrST mlr3spatiotempcv::TaskClassifST add-package mlr3spatiotempcv.Ordinal Regression Task: target ordinal.\n→ TaskOrdinal add-package mlr3ordinal (still development).Ordinal Regression Task: target ordinal.\n→ TaskOrdinal add-package mlr3ordinal (still development).","code":""},{"path":"basics.html","id":"tasks-creation","chapter":"2 Basics","heading":"2.2.2 Task Creation","text":"example, create regression task using mtcars data set package datasets predict numeric target variable \"mpg\" (miles per gallon).\nconsider first two features dataset brevity.First, load prepare data.Next, create regression task, .e. construct new instance R6 class TaskRegr.\nUsually, done calling constructor TaskRegr$new().\nInstead, calling converter as_task_regr() convert data.frame() stored data task provide following information:x: Object convert. Works data.frame()/data.table()/tibble() abstract data backends implemented class DataBackendDataTable.\nlatter allows connect --memory storage systems like SQL servers via extension package mlr3db.target: name target column regression problem.id (optional): arbitrary identifier task, used plots summaries.\nprovided, deparsed substituted name x used.print() method gives short summary task:\n32 observations 3 columns, 2 features.can also plot task using mlr3viz package, gives graphical summary properties:Note instead loading extension packages individually, often convenient load mlr3verse package instead.\nmlr3verse imports mlr3 packages re-exports functions used regular machine learning data science tasks.","code":"\ndata(\"mtcars\", package = \"datasets\")\ndata = mtcars[, 1:3]\nstr(data)## 'data.frame':    32 obs. of  3 variables:\n##  $ mpg : num  21 21 22.8 21.4 18.7 18.1 14.3 24.4 22.8 19.2 ...\n##  $ cyl : num  6 6 4 6 8 6 8 4 4 6 ...\n##  $ disp: num  160 160 108 258 360 ...\nlibrary(\"mlr3\")\n\ntask_mtcars = as_task_regr(data, target = \"mpg\", id = \"cars\")\nprint(task_mtcars)## <TaskRegr:cars> (32 x 3)\n## * Target: mpg\n## * Properties: -\n## * Features (2):\n##   - dbl (2): cyl, disp\nlibrary(\"mlr3viz\")\nautoplot(task_mtcars, type = \"pairs\")"},{"path":"basics.html","id":"tasks-predefined","chapter":"2 Basics","heading":"2.2.3 Predefined tasks","text":"mlr3 ships predefined machine learning tasks.\ntasks stored R6 Dictionary (key-value store) named mlr_tasks.\nPrinting gives keys (names datasets):can get informative summary example tasks converting dictionary data.table() object:display, columns \"lgl\" (logical), \"int\" (integer), \"dbl\" (double), \"chr\" (character), \"fct\" (factor), \"ord\" (ordered factor) \"pxc\" (POSIXct time) display number features dataset corresponding storage type.get task dictionary, one can use $get() method mlr_tasks class assign return value new object.\nSince mlr3 arranges object instances dictionaries extraction common task, shortcut : function tsk().\n, retrieve palmer penguins task originating package palmerpenguins:Note dictionaries mlr_tasks can get populated extension packages.\nE.g., mlr3data comes example toy tasks regression classification, mlr3proba ships additional survival density estimation tasks.\npackages get loaded load mlr3verse package, look available tasks :get information respective task, corresponding man page can found mlr_tasks_[id], e.g. mlr_tasks_german_credit.","code":"\nmlr_tasks## <DictionaryTask> with 11 stored values\n## Keys: boston_housing, breast_cancer, german_credit, iris, mtcars,\n##   penguins, pima, sonar, spam, wine, zoo\nas.data.table(mlr_tasks)##                key task_type nrow ncol properties lgl int dbl chr fct ord pxc\n##  1: boston_housing      regr  506   19              0   3  13   0   2   0   0\n##  2:  breast_cancer   classif  683   10   twoclass   0   0   0   0   0   9   0\n##  3:  german_credit   classif 1000   21   twoclass   0   3   0   0  14   3   0\n##  4:           iris   classif  150    5 multiclass   0   0   4   0   0   0   0\n##  5:         mtcars      regr   32   11              0   0  10   0   0   0   0\n##  6:       penguins   classif  344    8 multiclass   0   3   2   0   2   0   0\n##  7:           pima   classif  768    9   twoclass   0   0   8   0   0   0   0\n##  8:          sonar   classif  208   61   twoclass   0   0  60   0   0   0   0\n##  9:           spam   classif 4601   58   twoclass   0   0  57   0   0   0   0\n## 10:           wine   classif  178   14 multiclass   0   2  11   0   0   0   0\n## 11:            zoo   classif  101   17 multiclass  15   1   0   0   0   0   0\ntask_penguins = tsk(\"penguins\")\nprint(task_penguins)## <TaskClassif:penguins> (344 x 8)\n## * Target: species\n## * Properties: multiclass\n## * Features (7):\n##   - int (3): body_mass, flipper_length, year\n##   - dbl (2): bill_depth, bill_length\n##   - fct (2): island, sex\nlibrary(\"mlr3verse\")\nas.data.table(mlr_tasks)[, 1:4]##                key task_type  nrow ncol\n##  1:           actg      surv  1151   13\n##  2:   bike_sharing      regr 17379   14\n##  3: boston_housing      regr   506   19\n##  4:  breast_cancer   classif   683   10\n##  5:       faithful      dens   272    1\n##  6:           gbcs      surv   686   10\n##  7:  german_credit   classif  1000   21\n##  8:          grace      surv  1000    8\n##  9:           ilpd   classif   583   11\n## 10:           iris   classif   150    5\n## 11:     kc_housing      regr 21613   20\n## 12:           lung      surv   228   10\n## 13:      moneyball      regr  1232   15\n## 14:         mtcars      regr    32   11\n## 15:      optdigits   classif  5620   65\n## 16:       penguins   classif   344    8\n## 17:           pima   classif   768    9\n## 18:         precip      dens    70    1\n## 19:           rats      surv   300    5\n## 20:          sonar   classif   208   61\n## 21:           spam   classif  4601   58\n## 22:        titanic   classif  1309   11\n## 23:   unemployment      surv  3343    6\n## 24:      usarrests     clust    50    4\n## 25:           whas      surv   481   11\n## 26:           wine   classif   178   14\n## 27:            zoo   classif   101   17\n##                key task_type  nrow ncol"},{"path":"basics.html","id":"tasks-api","chapter":"2 Basics","heading":"2.2.4 Task API","text":"task properties characteristics can queried using task’s public fields methods (see Task).\nMethods can also used change stored data behavior task.","code":""},{"path":"basics.html","id":"tasks-retrieving","chapter":"2 Basics","heading":"2.2.4.1 Retrieving Data","text":"data stored task can retrieved directly fields, example:information can obtained methods object, example:mlr3, row (observation) unique identifier, stored integer().\ncan passed arguments $data() method select specific rows:Note although row ids typically just sequence 1 nrow(data), guaranteed unique natural numbers.\nKeep mind, especially work data stored real data base management system (see backends).Similarly row ids, target feature columns also unique identifiers, .e. names (stored character()).\nnames can accessed via public slots $feature_names $target_names.\n, “target” refers variable want predict “feature” predictors task.row_ids column names can combined selecting subset data:extract complete data task, one can also simply convert data.table:","code":"\ntask_mtcars## <TaskRegr:cars> (32 x 3)\n## * Target: mpg\n## * Properties: -\n## * Features (2):\n##   - dbl (2): cyl, disp\ntask_mtcars$nrow## [1] 32\ntask_mtcars$ncol## [1] 3\ntask_mtcars$data()##      mpg cyl  disp\n##  1: 21.0   6 160.0\n##  2: 21.0   6 160.0\n##  3: 22.8   4 108.0\n##  4: 21.4   6 258.0\n##  5: 18.7   8 360.0\n##  6: 18.1   6 225.0\n##  7: 14.3   8 360.0\n##  8: 24.4   4 146.7\n##  9: 22.8   4 140.8\n## 10: 19.2   6 167.6\n## 11: 17.8   6 167.6\n## 12: 16.4   8 275.8\n## 13: 17.3   8 275.8\n## 14: 15.2   8 275.8\n## 15: 10.4   8 472.0\n## 16: 10.4   8 460.0\n## 17: 14.7   8 440.0\n## 18: 32.4   4  78.7\n## 19: 30.4   4  75.7\n## 20: 33.9   4  71.1\n## 21: 21.5   4 120.1\n## 22: 15.5   8 318.0\n## 23: 15.2   8 304.0\n## 24: 13.3   8 350.0\n## 25: 19.2   8 400.0\n## 26: 27.3   4  79.0\n## 27: 26.0   4 120.3\n## 28: 30.4   4  95.1\n## 29: 15.8   8 351.0\n## 30: 19.7   6 145.0\n## 31: 15.0   8 301.0\n## 32: 21.4   4 121.0\n##      mpg cyl  disp\nhead(task_mtcars$row_ids)## [1] 1 2 3 4 5 6\n# retrieve data for rows with ids 1, 5, and 10\ntask_mtcars$data(rows = c(1, 5, 10))##     mpg cyl  disp\n## 1: 21.0   6 160.0\n## 2: 18.7   8 360.0\n## 3: 19.2   6 167.6\ntask_mtcars$feature_names## [1] \"cyl\"  \"disp\"\ntask_mtcars$target_names## [1] \"mpg\"\n# retrieve data for rows 1, 5, and 10 and only select column \"mpg\"\ntask_mtcars$data(rows = c(1, 5, 10), cols = \"mpg\")##     mpg\n## 1: 21.0\n## 2: 18.7\n## 3: 19.2\nsummary(as.data.table(task_mtcars))##       mpg            cyl            disp      \n##  Min.   :10.4   Min.   :4.00   Min.   : 71.1  \n##  1st Qu.:15.4   1st Qu.:4.00   1st Qu.:120.8  \n##  Median :19.2   Median :6.00   Median :196.3  \n##  Mean   :20.1   Mean   :6.19   Mean   :230.7  \n##  3rd Qu.:22.8   3rd Qu.:8.00   3rd Qu.:326.0  \n##  Max.   :33.9   Max.   :8.00   Max.   :472.0"},{"path":"basics.html","id":"tasks-roles","chapter":"2 Basics","heading":"2.2.4.2 Roles (Rows and Columns)","text":"possible assign different roles rows columns.\nroles affect behavior task different operations.\nalready seen target feature columns serve different purpose.example, previously-constructed mtcars task following column roles:Columns can also role (ignored) multiple roles.\nadd row names mtcars additional feature, first add data table regular column recreate task new column.row names now feature whose values stored column \"rn\".\ninclude column educational purposes .\nGenerally speaking, point feature uniquely identifies row.\nFurthermore, character data type cause problems many types machine learning algorithms.hand, identifier may useful label points plots, example identify label outliers.\nTherefore change role rn column removing list features assign new role \"name\".\ntwo ways :Use Task method $set_col_roles() (recommended).Simply modify field $col_roles, named list vectors column names.\nvector list corresponds column role, column names contained vector designated role.Supported column roles can found manual Task, just printing names field $col_roles:.Changing role change underlying data, just updates view .\ndata copied code .\nview changed -place though, .e. task object modified.Just like columns, also possible assign different roles rows.Rows can two different roles:Role use:\nRows generally available model fitting (although may also used test set resampling).\nrole default role.Role use:\nRows generally available model fitting (although may also used test set resampling).\nrole default role.Role validation:\nRows used training.\nRows missing values target column task creation automatically set validation role.Role validation:\nRows used training.\nRows missing values target column task creation automatically set validation role.several reasons hold observations back treat differently:often good practice validate final model external validation set identify possible overfitting.observations may unlabeled, e.g. competitions like Kaggle.observations used training model, can used get predictions.","code":"\nprint(task_mtcars$col_roles)## $feature\n## [1] \"cyl\"  \"disp\"\n## \n## $target\n## [1] \"mpg\"\n## \n## $name\n## character(0)\n## \n## $order\n## character(0)\n## \n## $stratum\n## character(0)\n## \n## $group\n## character(0)\n## \n## $weight\n## character(0)\n# with `keep.rownames`, data.table stores the row names in an extra column \"rn\"\ndata = as.data.table(datasets::mtcars[, 1:3], keep.rownames = TRUE)\ntask_mtcars = as_task_regr(data, target = \"mpg\", id = \"cars\")\n\n# there is a new feature called \"rn\"\ntask_mtcars$feature_names## [1] \"cyl\"  \"disp\" \"rn\"\n# supported column roles, see ?Task\nnames(task_mtcars$col_roles)## [1] \"feature\" \"target\"  \"name\"    \"order\"   \"stratum\" \"group\"   \"weight\"\n# assign column \"rn\" the role \"name\", remove from other roles\ntask_mtcars$set_col_roles(\"rn\", roles = \"name\")\n\n# note that \"rn\" not listed as feature anymore\ntask_mtcars$feature_names## [1] \"cyl\"  \"disp\"\n# \"rn\" also does not appear anymore when we access the data\ntask_mtcars$data(rows = 1:2)##    mpg cyl disp\n## 1:  21   6  160\n## 2:  21   6  160\ntask_mtcars$head(2)##    mpg cyl disp\n## 1:  21   6  160\n## 2:  21   6  160"},{"path":"basics.html","id":"tasks-mutators","chapter":"2 Basics","heading":"2.2.4.3 Task Mutators","text":"shown , modifying $col_roles $row_roles (either via set_col_roles()/set_row_roles() directly modifying named list) changes view data.\nadditional convenience method $filter() subsets current view based row ids $select() subsets view based feature names.methods discussed allow subset data, methods $rbind() $cbind() allow add extra rows columns task.\n, original data changed.\nadditional rows columns added view data.","code":"\ntask_penguins = tsk(\"penguins\")\ntask_penguins$select(c(\"body_mass\", \"flipper_length\")) # keep only these features\ntask_penguins$filter(1:3) # keep only these rows\ntask_penguins$head()##    species body_mass flipper_length\n## 1:  Adelie      3750            181\n## 2:  Adelie      3800            186\n## 3:  Adelie      3250            195\ntask_penguins$cbind(data.frame(letters = letters[1:3])) # add column foo\ntask_penguins$head()##    species body_mass flipper_length letters\n## 1:  Adelie      3750            181       a\n## 2:  Adelie      3800            186       b\n## 3:  Adelie      3250            195       c"},{"path":"basics.html","id":"autoplot-task","chapter":"2 Basics","heading":"2.2.5 Plotting Tasks","text":"mlr3viz package provides plotting facilities many classes implemented mlr3.\navailable plot types depend inherited class, plots returned ggplot2 objects can easily customized.classification tasks (inheriting TaskClassif), see documentation mlr3viz::autoplot.TaskClassif implemented plot types.\nexamples get impression:course, can regression tasks (inheriting TaskRegr) documented mlr3viz::autoplot.TaskRegr:","code":"\nlibrary(\"mlr3viz\")\n\n# get the pima indians task\ntask = tsk(\"pima\")\n\n# subset task to only use the 3 first features\ntask$select(head(task$feature_names, 3))\n\n# default plot: class frequencies\nautoplot(task)\n# pairs plot (requires package GGally)\nautoplot(task, type = \"pairs\")\n# duo plot (requires package GGally)\nautoplot(task, type = \"duo\")\nlibrary(\"mlr3viz\")\n\n# get the complete mtcars task\ntask = tsk(\"mtcars\")\n\n# subset task to only use the 3 first features\ntask$select(head(task$feature_names, 3))\n\n# default plot: boxplot of target variable\nautoplot(task)\n# pairs plot (requires package GGally)\nautoplot(task, type = \"pairs\")"},{"path":"basics.html","id":"learners","chapter":"2 Basics","heading":"2.3 Learners","text":"Objects class Learner provide unified interface many popular machine learning algorithms R.\nconsist methods train predict model Task provide meta-information learners, hyperparameters can set.base class learner Learner, specialized regression LearnerRegr classification LearnerClassif.\nExtension packages inherit Learner base class, e.g. mlr3proba::LearnerSurv mlr3cluster::LearnerClust.\ncontrast Task, creation custom Learner usually required advanced topic.\nHence, refer reader Section 6.1 proceed overview interface already implemented learners.training step: training data (features target) passed Learner’s $train() function trains stores model, .e. relationship target feature.predict step: new slice data, inference data, passed $predict() method Learner.\nmodel trained first step used predict missing target feature, e.g. labels classification problems numerical outcome regression problems.","code":""},{"path":"basics.html","id":"predefined-learners","chapter":"2 Basics","heading":"2.3.1 Predefined Learners","text":"mlr3 package ships following minimal set classification regression learners avoid unnecessary dependencies:mlr_learners_classif.featureless: Simple baseline classification learner (inheriting LearnerClassif).\ndefaults, constantly predicts label frequent training set.mlr_learners_regr.featureless: Simple baseline regression learner (inheriting LearnerRegr).\ndefaults, constantly predicts mean outcome training set.mlr_learners_classif.rpart: Single classification tree package rpart.mlr_learners_regr.rpart: Single regression tree package rpart.set baseline learners usually insufficient real data analysis.\nThus, cherry-picked one implementation popular machine learning method connected mlr3learners package:Linear logistic regressionPenalized Generalized Linear Models\\(k\\)-Nearest Neighbors regression classificationKrigingLinear Quadratic Discriminant AnalysisNaive BayesSupport-Vector machinesGradient BoostingRandom Forests regression, classification survivalMore machine learning methods alternative implementations collected mlr3extralearners repository.\nfull list implemented learners across packages given interactive list also via mlr3extralearners::list_mlr3learners().\nlatest build status learners listed .create object one predefined learners, need access mlr_learners Dictionary , similar mlr_tasks, gets automatically populated learners extension packages.obtain object dictionary can use lrn() generic mlr_learners$get() method, e.g. lrn(\"classif.rpart\").","code":"\nhead(mlr3extralearners::list_mlr3learners())##          name   class                 id      mlr3_package\n## 1: AdaBoostM1 classif classif.AdaBoostM1 mlr3extralearners\n## 2:       bart classif       classif.bart mlr3extralearners\n## 3:        C50 classif        classif.C50 mlr3extralearners\n## 4:   catboost classif   classif.catboost mlr3extralearners\n## 5:    cforest classif    classif.cforest mlr3extralearners\n## 6:      ctree classif      classif.ctree mlr3extralearners\n##         required_packages                                      properties\n## 1:                  RWeka                             multiclass,twoclass\n## 2:                 dbarts                                twoclass,weights\n## 3:                    C50            missings,multiclass,twoclass,weights\n## 4:               catboost importance,missings,multiclass,twoclass,weights\n## 5: partykit,sandwich,coin           multiclass,oob_error,twoclass,weights\n## 6: partykit,sandwich,coin                     multiclass,twoclass,weights\n##                     feature_types predict_types\n## 1:         numeric,factor,ordered response,prob\n## 2: integer,numeric,factor,ordered response,prob\n## 3:         numeric,factor,ordered response,prob\n## 4:         numeric,factor,ordered response,prob\n## 5: integer,numeric,factor,ordered response,prob\n## 6: integer,numeric,factor,ordered response,prob\n# load most mlr3 packages to populate the dictionary\nlibrary(\"mlr3verse\")\nmlr_learners## <DictionaryLearner> with 135 stored values\n## Keys: classif.AdaBoostM1, classif.bart, classif.C50, classif.catboost,\n##   classif.cforest, classif.ctree, classif.cv_glmnet, classif.debug,\n##   classif.earth, classif.extratrees, classif.featureless, classif.fnn,\n##   classif.gam, classif.gamboost, classif.gausspr, classif.gbm,\n##   classif.glmboost, classif.glmnet, classif.IBk, classif.J48,\n##   classif.JRip, classif.kknn, classif.ksvm, classif.lda,\n##   classif.liblinear, classif.lightgbm, classif.LMT, classif.log_reg,\n##   classif.lssvm, classif.mob, classif.multinom, classif.naive_bayes,\n##   classif.nnet, classif.OneR, classif.PART, classif.qda,\n##   classif.randomForest, classif.ranger, classif.rfsrc, classif.rpart,\n##   classif.svm, classif.xgboost, clust.agnes, clust.ap, clust.cmeans,\n##   clust.cobweb, clust.dbscan, clust.diana, clust.em, clust.fanny,\n##   clust.featureless, clust.ff, clust.hclust, clust.kkmeans,\n##   clust.kmeans, clust.MBatchKMeans, clust.meanshift, clust.pam,\n##   clust.SimpleKMeans, clust.xmeans, dens.hist, dens.kde, dens.kde_kd,\n##   dens.kde_ks, dens.locfit, dens.logspline, dens.mixed, dens.nonpar,\n##   dens.pen, dens.plug, dens.spline, regr.bart, regr.catboost,\n##   regr.cforest, regr.ctree, regr.cubist, regr.cv_glmnet, regr.earth,\n##   regr.extratrees, regr.featureless, regr.fnn, regr.gam, regr.gamboost,\n##   regr.gausspr, regr.gbm, regr.glm, regr.glmboost, regr.glmnet,\n##   regr.IBk, regr.kknn, regr.km, regr.ksvm, regr.liblinear,\n##   regr.lightgbm, regr.lm, regr.M5Rules, regr.mars, regr.mob,\n##   regr.randomForest, regr.ranger, regr.rfsrc, regr.rpart, regr.rvm,\n##   regr.svm, regr.xgboost, surv.akritas, surv.blackboost, surv.cforest,\n##   surv.coxboost, surv.coxph, surv.coxtime, surv.ctree,\n##   surv.cv_coxboost, surv.cv_glmnet, surv.deephit, surv.deepsurv,\n##   surv.dnnsurv, surv.flexible, surv.gamboost, surv.gbm, surv.glmboost,\n##   surv.glmnet, surv.kaplan, surv.loghaz, surv.mboost, surv.nelson,\n##   surv.obliqueRSF, surv.parametric, surv.pchazard, surv.penalized,\n##   surv.ranger, surv.rfsrc, surv.rpart, surv.svm, surv.xgboost"},{"path":"basics.html","id":"learner-api","chapter":"2 Basics","heading":"2.3.2 Learner API","text":"learner provides following meta-information:feature_types: type features learner can deal .packages: packages required train model learner make predictions.properties: additional properties capabilities.\nexample, learner property “missings” able handle missing feature values, “importance” computes allows extract data relative importance features.\ncomplete list available mlr3 reference.predict_types: possible prediction types. example, classification learner can predict labels (“response”) probabilities (“prob”). complete list possible predict types see mlr3 reference.can retrieve specific learner using id:field param_set stores description hyperparameters learner , ranges, defaults, current values:set current hyperparameter values stored values field param_set field.\ncan change current hyperparameter values assigning named list field:Note operation just overwrites previously set parameters.\njust want add new hyperparameter, retrieve current set parameter values, modify named list write back learner:updates cp 0.02 keeps previously set parameter xval.Note lrn() function also accepts additional arguments used update hyperparameters set fields learner one go:","code":"\nlearner = lrn(\"classif.rpart\")\nprint(learner)## <LearnerClassifRpart:classif.rpart>\n## * Model: -\n## * Parameters: xval=0\n## * Packages: rpart\n## * Predict Type: response\n## * Feature types: logical, integer, numeric, factor, ordered\n## * Properties: importance, missings, multiclass, selected_features,\n##   twoclass, weights\nlearner$param_set## <ParamSet>\n##                 id    class lower upper nlevels        default value\n##  1:             cp ParamDbl     0     1     Inf           0.01      \n##  2:     keep_model ParamLgl    NA    NA       2          FALSE      \n##  3:     maxcompete ParamInt     0   Inf     Inf              4      \n##  4:       maxdepth ParamInt     1    30      30             30      \n##  5:   maxsurrogate ParamInt     0   Inf     Inf              5      \n##  6:      minbucket ParamInt     1   Inf     Inf <NoDefault[3]>      \n##  7:       minsplit ParamInt     1   Inf     Inf             20      \n##  8: surrogatestyle ParamInt     0     1       2              0      \n##  9:   usesurrogate ParamInt     0     2       3              2      \n## 10:           xval ParamInt     0   Inf     Inf             10     0\nlearner$param_set$values = list(cp = 0.01, xval = 0)\nlearner## <LearnerClassifRpart:classif.rpart>\n## * Model: -\n## * Parameters: cp=0.01, xval=0\n## * Packages: rpart\n## * Predict Type: response\n## * Feature types: logical, integer, numeric, factor, ordered\n## * Properties: importance, missings, multiclass, selected_features,\n##   twoclass, weights\npv = learner$param_set$values\npv$cp = 0.02\nlearner$param_set$values = pv\nlearner = lrn(\"classif.rpart\", id = \"rp\", cp = 0.001)\nlearner$id## [1] \"rp\"\nlearner$param_set$values## $xval\n## [1] 0\n## \n## $cp\n## [1] 0.001"},{"path":"basics.html","id":"train-predict","chapter":"2 Basics","heading":"2.4 Train, Predict, Score","text":"section, explain tasks learners can used train model predict new dataset.\nconcept demonstrated supervised classification using penguins dataset rpart learner, builds singe classification tree.Training learner means fitting model given data set.\nSubsequently, want predict label new observations.\npredictions compared ground truth values order assess predictive performance model.","code":""},{"path":"basics.html","id":"train-predict-objects","chapter":"2 Basics","heading":"2.4.1 Creating Task and Learner Objects","text":"First , load mlr3verse package.Next, retrieve task learner mlr_tasks (shortcut tsk()) mlr_learners (shortcut lrn()), respectively:classification task:learner classification tree:","code":"\nlibrary(\"mlr3verse\")\ntask = tsk(\"penguins\")\nlearner = lrn(\"classif.rpart\")"},{"path":"basics.html","id":"split-data","chapter":"2 Basics","heading":"2.4.2 Setting up the train/test splits of the data","text":"common train majority data.\nuse 80% available observations predict remaining 20%.\npurpose, create two index vectors:Section 2.5 learn mlr3 can automatically create training test sets based different resampling strategies.","code":"\ntrain_set = sample(task$nrow, 0.8 * task$nrow)\ntest_set = setdiff(seq_len(task$nrow), train_set)"},{"path":"basics.html","id":"training","chapter":"2 Basics","heading":"2.4.3 Training the learner","text":"field $model stores model produced training step.\n$train() method called learner object, field NULL:Next, classification tree trained using train set sonar task calling $train() method Learner:operation modifies learner -place.\ncan now access stored model via field $model:","code":"\nlearner$model## NULL\nlearner$train(task, row_ids = train_set)\nprint(learner$model)## n= 275 \n## \n## node), split, n, loss, yval, (yprob)\n##       * denotes terminal node\n## \n## 1) root 275 158 Adelie (0.42545 0.20000 0.37455)  \n##   2) flipper_length< 207.5 167  52 Adelie (0.68862 0.31138 0.00000)  \n##     4) bill_length< 43.35 115   3 Adelie (0.97391 0.02609 0.00000) *\n##     5) bill_length>=43.35 52   3 Chinstrap (0.05769 0.94231 0.00000) *\n##   3) flipper_length>=207.5 108   5 Gentoo (0.01852 0.02778 0.95370) *"},{"path":"basics.html","id":"predicting","chapter":"2 Basics","heading":"2.4.4 Predicting","text":"model trained, use remaining part data prediction.\nRemember initially split data train_set test_set.$predict() method Learner returns Prediction object.\nprecisely, LearnerClassif returns PredictionClassif object.prediction objects holds row ids test data, respective true label target column respective predictions.\nsimplest way extract information converting Prediction object data.table():classification, can also extract confusion matrix:","code":"\nprediction = learner$predict(task, row_ids = test_set)\nprint(prediction)## <PredictionClassif> for 69 observations:\n##     row_ids     truth  response\n##           3    Adelie    Adelie\n##           8    Adelie    Adelie\n##          15    Adelie    Adelie\n## ---                            \n##         335 Chinstrap Chinstrap\n##         336 Chinstrap Chinstrap\n##         344 Chinstrap Chinstrap\nhead(as.data.table(prediction))##    row_ids  truth  response\n## 1:       3 Adelie    Adelie\n## 2:       8 Adelie    Adelie\n## 3:      15 Adelie    Adelie\n## 4:      20 Adelie Chinstrap\n## 5:      23 Adelie    Adelie\n## 6:      24 Adelie    Adelie\nprediction$confusion##            truth\n## response    Adelie Chinstrap Gentoo\n##   Adelie        34         2      0\n##   Chinstrap      1        10      2\n##   Gentoo         0         1     19"},{"path":"basics.html","id":"predict-type","chapter":"2 Basics","heading":"2.4.5 Changing the Predict Type","text":"Classification learners default predicting class label.\nHowever, many classifiers additionally also tell sure predicted label providing posterior probabilities.\nswitch predicting probabilities, predict_type field LearnerClassif must changed \"response\" \"prob\" training:prediction object now contains probabilities class labels:Analogously predicting probabilities, many regression learners support extraction standard error estimates setting predict type \"se\".","code":"\nlearner$predict_type = \"prob\"\n\n# re-fit the model\nlearner$train(task, row_ids = train_set)\n\n# rebuild prediction object\nprediction = learner$predict(task, row_ids = test_set)\n# data.table conversion\nhead(as.data.table(prediction))##    row_ids  truth  response prob.Adelie prob.Chinstrap prob.Gentoo\n## 1:       3 Adelie    Adelie     0.97391        0.02609           0\n## 2:       8 Adelie    Adelie     0.97391        0.02609           0\n## 3:      15 Adelie    Adelie     0.97391        0.02609           0\n## 4:      20 Adelie Chinstrap     0.05769        0.94231           0\n## 5:      23 Adelie    Adelie     0.97391        0.02609           0\n## 6:      24 Adelie    Adelie     0.97391        0.02609           0\n# directly access the predicted labels:\nhead(prediction$response)## [1] Adelie    Adelie    Adelie    Chinstrap Adelie    Adelie   \n## Levels: Adelie Chinstrap Gentoo\n# directly access the matrix of probabilities:\nhead(prediction$prob)##       Adelie Chinstrap Gentoo\n## [1,] 0.97391   0.02609      0\n## [2,] 0.97391   0.02609      0\n## [3,] 0.97391   0.02609      0\n## [4,] 0.05769   0.94231      0\n## [5,] 0.97391   0.02609      0\n## [6,] 0.97391   0.02609      0"},{"path":"basics.html","id":"autoplot-prediction","chapter":"2 Basics","heading":"2.4.6 Plotting Predictions","text":"Analogously plotting tasks, mlr3viz provides autoplot() method Prediction objects.\navailable types listed manual page autoplot.PredictionClassif() autoplot.PredictionRegr(), respectively.","code":"\ntask = tsk(\"penguins\")\nlearner = lrn(\"classif.rpart\", predict_type = \"prob\")\nlearner$train(task)\nprediction = learner$predict(task)\nautoplot(prediction)"},{"path":"basics.html","id":"measure","chapter":"2 Basics","heading":"2.4.7 Performance assessment","text":"last step modeling usually performance assessment.\nassess quality predictions, predicted labels compared true labels.\ncomparison calculated defined measure, given Measure object.\nNote prediction made dataset without target column, .e. without true labels, performance can calculated.Predefined available measures stored mlr_measures (convenience getter msr()):choose accuracy (classif.acc) specific performance measure call method $score() Prediction object quantify predictive performance.Note , measure specified, classification defaults classification error (classif.ce) regression defaults mean squared error (regr.mse).","code":"\nmlr_measures## <DictionaryMeasure> with 85 stored values\n## Keys: aic, bic, classif.acc, classif.auc, classif.bacc, classif.bbrier,\n##   classif.ce, classif.costs, classif.dor, classif.fbeta, classif.fdr,\n##   classif.fn, classif.fnr, classif.fomr, classif.fp, classif.fpr,\n##   classif.logloss, classif.mbrier, classif.mcc, classif.npv,\n##   classif.ppv, classif.prauc, classif.precision, classif.recall,\n##   classif.sensitivity, classif.specificity, classif.tn, classif.tnr,\n##   classif.tp, classif.tpr, clust.ch, clust.db, clust.dunn,\n##   clust.silhouette, clust.wss, debug, dens.logloss, oob_error,\n##   regr.bias, regr.ktau, regr.mae, regr.mape, regr.maxae, regr.medae,\n##   regr.medse, regr.mse, regr.msle, regr.pbias, regr.rae, regr.rmse,\n##   regr.rmsle, regr.rrse, regr.rse, regr.rsq, regr.sae, regr.smape,\n##   regr.srho, regr.sse, selected_features, surv.brier, surv.calib_alpha,\n##   surv.calib_beta, surv.chambless_auc, surv.cindex, surv.dcalib,\n##   surv.graf, surv.hung_auc, surv.intlogloss, surv.logloss, surv.mae,\n##   surv.mse, surv.nagelk_r2, surv.oquigley_r2, surv.rmse, surv.schmid,\n##   surv.song_auc, surv.song_tnr, surv.song_tpr, surv.uno_auc,\n##   surv.uno_tnr, surv.uno_tpr, surv.xu_r2, time_both, time_predict,\n##   time_train\nmeasure = msr(\"classif.acc\")\nprint(measure)## <MeasureClassifSimple:classif.acc>\n## * Packages: mlr3measures\n## * Range: [0, 1]\n## * Minimize: FALSE\n## * Parameters: list()\n## * Properties: -\n## * Predict type: response\nprediction$score(measure)## classif.acc \n##      0.9651"},{"path":"basics.html","id":"resampling","chapter":"2 Basics","heading":"2.5 Resampling","text":"Resampling strategies usually used assess performance learning algorithm.\nmlr3 entails following predefined resampling strategies:cross validation (\"cv\"),leave-one-cross validation (\"loo\"),repeated cross validation (\"repeated_cv\"),bootstrapping (\"bootstrap\"),subsampling (\"subsampling\"),holdout (\"holdout\"),-sample resampling (\"insample\"), andcustom resampling (\"custom\").following sections provide guidance set select resampling strategy subsequently instantiate resampling process.graphical illustration resampling process:","code":""},{"path":"basics.html","id":"resampling-settings","chapter":"2 Basics","heading":"2.5.1 Settings","text":"example use penguins task simple classification tree rpart package .performing resampling dataset, first need define approach used.\nmlr3 resampling strategies parameters can queried looking data.table output mlr_resamplings dictionary:Additional resampling methods special use cases available via extension packages, mlr3spatiotemporal spatial data.model fit conducted train/predict/score chapter equivalent “holdout resampling”, let’s consider one first.\n, can retrieve elements dictionary mlr_resamplings via $get() convenience functionrsmp():Note $is_instantiated field set FALSE.\nmeans actually apply strategy dataset yet.\nApplying strategy dataset done next section Instantiation.default get .66/.33 split data.\ntwo ways ratio can changed:Overwriting slot $param_set$values using named list:Specifying resampling parameters directly construction:","code":"\nlibrary(\"mlr3verse\")\n\ntask = tsk(\"penguins\")\nlearner = lrn(\"classif.rpart\")\nas.data.table(mlr_resamplings)##            key        params iters\n## 1:   bootstrap ratio,repeats    30\n## 2:      custom                  NA\n## 3:   custom_cv                  NA\n## 4:          cv         folds    10\n## 5:     holdout         ratio     1\n## 6:    insample                   1\n## 7:         loo                  NA\n## 8: repeated_cv folds,repeats   100\n## 9: subsampling ratio,repeats    30\nresampling = rsmp(\"holdout\")\nprint(resampling)## <ResamplingHoldout> with 1 iterations\n## * Instantiated: FALSE\n## * Parameters: ratio=0.6667\nresampling$param_set$values = list(ratio = 0.8)\nrsmp(\"holdout\", ratio = 0.8)## <ResamplingHoldout> with 1 iterations\n## * Instantiated: FALSE\n## * Parameters: ratio=0.8"},{"path":"basics.html","id":"resampling-inst","chapter":"2 Basics","heading":"2.5.2 Instantiation","text":"far just set stage selected resampling strategy.actually perform splitting obtain indices training test split resampling needs Task.\ncalling method instantiate(), split indices data indices training test sets.\nresulting indices stored Resampling objects.\nbetter illustrate following operations, switch 3-fold cross-validation:Note want compare multiple Learners fair manner, using instantiated resampling learner mandatory.\nway greatly simplify comparison multiple learners discussed next section benchmarking.","code":"\nresampling = rsmp(\"cv\", folds = 3)\nresampling$instantiate(task)\nresampling$iters## [1] 3\nstr(resampling$train_set(1))##  int [1:229] 3 9 11 16 19 20 21 25 29 33 ...\nstr(resampling$test_set(1))##  int [1:115] 1 2 8 12 15 22 23 24 36 38 ..."},{"path":"basics.html","id":"resampling-exec","chapter":"2 Basics","heading":"2.5.3 Execution","text":"Task, Learner Resampling object can call resample(), repeatedly fits learner task hand according given resampling strategy.\nturn creates ResampleResult object.\ntell resample() keep fitted models setting store_models option TRUEand start computation:returned ResampleResult stored rr provides various getters access stored information:Calculate average performance across resampling iterations:\n\nrr$aggregate(msr(\"classif.ce\"))\n## classif.ce \n##    0.06974Calculate average performance across resampling iterations:Extract performance individual resampling iterations:\n\nrr$score(msr(\"classif.ce\"))\n##                 task  task_id                   learner    learner_id\n## 1: <TaskClassif[47]> penguins <LearnerClassifRpart[36]> classif.rpart\n## 2: <TaskClassif[47]> penguins <LearnerClassifRpart[36]> classif.rpart\n## 3: <TaskClassif[47]> penguins <LearnerClassifRpart[36]> classif.rpart\n##            resampling resampling_id iteration              prediction\n## 1: <ResamplingCV[19]>            cv         1 <PredictionClassif[19]>\n## 2: <ResamplingCV[19]>            cv         2 <PredictionClassif[19]>\n## 3: <ResamplingCV[19]>            cv         3 <PredictionClassif[19]>\n##    classif.ce\n## 1:    0.11304\n## 2:    0.03478\n## 3:    0.06140Extract performance individual resampling iterations:Check warnings errors:\n\nrr$warnings\n## Empty data.table (0 rows 2 cols): iteration,msg\n\nrr$errors\n## Empty data.table (0 rows 2 cols): iteration,msgCheck warnings errors:Extract inspect resampling splits:\n\nrr$resampling\n## <ResamplingCV> 3 iterations\n## * Instantiated: TRUE\n## * Parameters: folds=3\n\nrr$resampling$iters\n## [1] 3\n\nstr(rr$resampling$test_set(1))\n##  int [1:115] 1 3 9 10 11 13 19 23 26 27 ...\n\nstr(rr$resampling$train_set(1))\n##  int [1:229] 2 4 14 15 16 22 25 29 30 36 ...Extract inspect resampling splits:Retrieve learner specific iteration inspect :\n\nlrn = rr$learners[[1]]\nlrn$model\n## n= 229 \n## \n## node), split, n, loss, yval, (yprob)\n##       * denotes terminal node\n## \n##  1) root 229 131 Adelie (0.427948 0.196507 0.375546)  \n##    2) flipper_length< 207.5 142  44 Adelie (0.690141 0.302817 0.007042)  \n##      4) bill_length< 43.15 94   1 Adelie (0.989362 0.010638 0.000000) *\n##      5) bill_length>=43.15 48   6 Chinstrap (0.104167 0.875000 0.020833)  \n##       10) body_mass>=4125 9   4 Adelie (0.555556 0.333333 0.111111) *\n##       11) body_mass< 4125 39   0 Chinstrap (0.000000 1.000000 0.000000) *\n##    3) flipper_length>=207.5 87   2 Gentoo (0.000000 0.022989 0.977011) *Retrieve learner specific iteration inspect :Extract predictions:\n\nrr$prediction() # predictions merged single Prediction object\n## <PredictionClassif> 344 observations:\n##     row_ids     truth  response prob.Adelie prob.Chinstrap prob.Gentoo\n##           1    Adelie    Adelie      0.9894        0.01064           0\n##           3    Adelie    Adelie      0.9894        0.01064           0\n##           9    Adelie    Adelie      0.9894        0.01064           0\n## ---                                                                   \n##         337 Chinstrap Chinstrap      0.1000        0.90000           0\n##         340 Chinstrap Chinstrap      0.1000        0.90000           0\n##         341 Chinstrap Chinstrap      0.1000        0.90000           0\n\nrr$predictions()[[1]] # prediction first resampling iteration\n## <PredictionClassif> 115 observations:\n##     row_ids     truth  response prob.Adelie prob.Chinstrap prob.Gentoo\n##           1    Adelie    Adelie      0.9894        0.01064           0\n##           3    Adelie    Adelie      0.9894        0.01064           0\n##           9    Adelie    Adelie      0.9894        0.01064           0\n## ---                                                                   \n##         338 Chinstrap Chinstrap      0.0000        1.00000           0\n##         339 Chinstrap Chinstrap      0.0000        1.00000           0\n##         344 Chinstrap Chinstrap      0.0000        1.00000           0Extract predictions:Filter keep specified iterations:\n\nrr$filter(c(1, 3))\nprint(rr)\n## <ResampleResult> 2 iterations\n## * Task: penguins\n## * Learner: classif.rpart\n## * Warnings: 0 0 iterations\n## * Errors: 0 0 iterationsFilter keep specified iterations:","code":"\ntask = tsk(\"penguins\")\nlearner = lrn(\"classif.rpart\", maxdepth = 3, predict_type = \"prob\")\nresampling = rsmp(\"cv\", folds = 3)\n\nrr = resample(task, learner, resampling, store_models = TRUE)\nprint(rr)## <ResampleResult> of 3 iterations\n## * Task: penguins\n## * Learner: classif.rpart\n## * Warnings: 0 in 0 iterations\n## * Errors: 0 in 0 iterations\nrr$aggregate(msr(\"classif.ce\"))## classif.ce \n##    0.06974\nrr$score(msr(\"classif.ce\"))##                 task  task_id                   learner    learner_id\n## 1: <TaskClassif[47]> penguins <LearnerClassifRpart[36]> classif.rpart\n## 2: <TaskClassif[47]> penguins <LearnerClassifRpart[36]> classif.rpart\n## 3: <TaskClassif[47]> penguins <LearnerClassifRpart[36]> classif.rpart\n##            resampling resampling_id iteration              prediction\n## 1: <ResamplingCV[19]>            cv         1 <PredictionClassif[19]>\n## 2: <ResamplingCV[19]>            cv         2 <PredictionClassif[19]>\n## 3: <ResamplingCV[19]>            cv         3 <PredictionClassif[19]>\n##    classif.ce\n## 1:    0.11304\n## 2:    0.03478\n## 3:    0.06140\nrr$warnings## Empty data.table (0 rows and 2 cols): iteration,msg\nrr$errors## Empty data.table (0 rows and 2 cols): iteration,msg\nrr$resampling## <ResamplingCV> with 3 iterations\n## * Instantiated: TRUE\n## * Parameters: folds=3\nrr$resampling$iters## [1] 3\nstr(rr$resampling$test_set(1))##  int [1:115] 1 3 9 10 11 13 19 23 26 27 ...\nstr(rr$resampling$train_set(1))##  int [1:229] 2 4 14 15 16 22 25 29 30 36 ...\nlrn = rr$learners[[1]]\nlrn$model## n= 229 \n## \n## node), split, n, loss, yval, (yprob)\n##       * denotes terminal node\n## \n##  1) root 229 131 Adelie (0.427948 0.196507 0.375546)  \n##    2) flipper_length< 207.5 142  44 Adelie (0.690141 0.302817 0.007042)  \n##      4) bill_length< 43.15 94   1 Adelie (0.989362 0.010638 0.000000) *\n##      5) bill_length>=43.15 48   6 Chinstrap (0.104167 0.875000 0.020833)  \n##       10) body_mass>=4125 9   4 Adelie (0.555556 0.333333 0.111111) *\n##       11) body_mass< 4125 39   0 Chinstrap (0.000000 1.000000 0.000000) *\n##    3) flipper_length>=207.5 87   2 Gentoo (0.000000 0.022989 0.977011) *\nrr$prediction() # all predictions merged into a single Prediction object## <PredictionClassif> for 344 observations:\n##     row_ids     truth  response prob.Adelie prob.Chinstrap prob.Gentoo\n##           1    Adelie    Adelie      0.9894        0.01064           0\n##           3    Adelie    Adelie      0.9894        0.01064           0\n##           9    Adelie    Adelie      0.9894        0.01064           0\n## ---                                                                   \n##         337 Chinstrap Chinstrap      0.1000        0.90000           0\n##         340 Chinstrap Chinstrap      0.1000        0.90000           0\n##         341 Chinstrap Chinstrap      0.1000        0.90000           0\nrr$predictions()[[1]] # prediction of first resampling iteration## <PredictionClassif> for 115 observations:\n##     row_ids     truth  response prob.Adelie prob.Chinstrap prob.Gentoo\n##           1    Adelie    Adelie      0.9894        0.01064           0\n##           3    Adelie    Adelie      0.9894        0.01064           0\n##           9    Adelie    Adelie      0.9894        0.01064           0\n## ---                                                                   \n##         338 Chinstrap Chinstrap      0.0000        1.00000           0\n##         339 Chinstrap Chinstrap      0.0000        1.00000           0\n##         344 Chinstrap Chinstrap      0.0000        1.00000           0\nrr$filter(c(1, 3))\nprint(rr)## <ResampleResult> of 2 iterations\n## * Task: penguins\n## * Learner: classif.rpart\n## * Warnings: 0 in 0 iterations\n## * Errors: 0 in 0 iterations"},{"path":"basics.html","id":"resamp-custom","chapter":"2 Basics","heading":"2.5.4 Custom resampling","text":"Sometimes necessary perform resampling custom splits, e.g. reproduce results reported study.\nmanual resampling instance can created using \"custom\" template.","code":"\nresampling = rsmp(\"custom\")\nresampling$instantiate(task,\n  train = list(c(1:10, 51:60, 101:110)),\n  test = list(c(11:20, 61:70, 111:120))\n)\nresampling$iters## [1] 1\nresampling$train_set(1)##  [1]   1   2   3   4   5   6   7   8   9  10  51  52  53  54  55  56  57  58  59\n## [20]  60 101 102 103 104 105 106 107 108 109 110\nresampling$test_set(1)##  [1]  11  12  13  14  15  16  17  18  19  20  61  62  63  64  65  66  67  68  69\n## [20]  70 111 112 113 114 115 116 117 118 119 120"},{"path":"basics.html","id":"resampling-with-predefined-groups","chapter":"2 Basics","heading":"2.5.5 Resampling with (predefined) groups","text":"One can denote certain observations grouped resampling, meaning always either belong train test set.\ncharacteristic must defined via column role \"group\" Task creation (see also help page column role).\n{mlr} previously called “blocking”.\nSee also mlr3gallery post topic practical example.even strict approach supply custom grouping structure solely makes one fold.\n{mlr3} supports via \"custom_cv\" resampling method.\nmethod accepts factor vector length task$nrow() string existing variable data.\nNote approach allow setting “folds” argument number folds determined number factor levels.\npredefined approach called “grouping” mlr2.\nterm “blocking” overloaded resampling context. field spatial resampling (see r mlr_pkg(“mlr3spatiotempcv”)), “blocking” used general concept grouping observations hand also specific resampling methods “blocking” name (`“spcv_block”) focus rectangular partitioning.\n","code":""},{"path":"basics.html","id":"autoplot-resampleresult","chapter":"2 Basics","heading":"2.5.6 Plotting Resample Results","text":"mlr3viz provides autoplot() method.\nshowcase plots, create binary classification task two features, perform resampling 10-fold cross validation visualize results:available plot types listed manual page autoplot.ResampleResult().","code":"\ntask = tsk(\"pima\")\ntask$select(c(\"glucose\", \"mass\"))\nlearner = lrn(\"classif.rpart\", predict_type = \"prob\")\nrr = resample(task, learner, rsmp(\"cv\"), store_models = TRUE)\n\n# boxplot of AUC values across the 10 folds\nautoplot(rr, measure = msr(\"classif.auc\"))\n# ROC curve, averaged over 10 folds\nautoplot(rr, type = \"roc\")\n# learner predictions for first fold\nrr$filter(1)\nautoplot(rr, type = \"prediction\")## Warning: Removed 1 rows containing missing values (geom_point)."},{"path":"basics.html","id":"autoplot-resample-partition","chapter":"2 Basics","heading":"2.5.7 Plotting Resample Partitions","text":"mlr3spatiotempcv provides autoplot() methods visualize resampling partitions spatiotemporal datasets.\nSee function reference vignette “Spatiotemporal visualization” info.","code":"## Warning: Ignoring unknown parameters: crs\n\n## Warning: Ignoring unknown parameters: crs"},{"path":"basics.html","id":"benchmarking","chapter":"2 Basics","heading":"2.6 Benchmarking","text":"Comparing performance different learners multiple tasks /different resampling schemes common task.\noperation usually referred “benchmarking” field machine-learning.\nmlr3 package offers benchmark() convenience function.","code":""},{"path":"basics.html","id":"bm-design","chapter":"2 Basics","heading":"2.6.1 Design Creation","text":"mlr3 require supply “design” benchmark experiment.\ndesign essentially table settings want execute.\nconsists unique combinations Task, Learner Resampling triplets.use benchmark_grid() function create exhaustive design instantiate resampling properly, learners executed train/test split tasks.\nset learners predict probabilities also tell predict observations training set (setting predict_sets c(\"train\", \"test\")).\nAdditionally, use tsks(), lrns(), rsmps() retrieve lists Task, Learner Resampling fashion tsk(), lrn() rsmp().created design can passed benchmark() start computation.\nalso possible create custom design manually.\nHowever, create custom task data.table(), train/test splits different row design manually instantiate resampling creating design.\nSee help page benchmark_grid() example.","code":"\nlibrary(\"mlr3verse\")\n\ndesign = benchmark_grid(\n  tasks = tsks(c(\"spam\", \"german_credit\", \"sonar\")),\n  learners = lrns(c(\"classif.ranger\", \"classif.rpart\", \"classif.featureless\"),\n    predict_type = \"prob\", predict_sets = c(\"train\", \"test\")),\n  resamplings = rsmps(\"cv\", folds = 3)\n)\nprint(design)##                 task                         learner         resampling\n## 1: <TaskClassif[47]>      <LearnerClassifRanger[36]> <ResamplingCV[19]>\n## 2: <TaskClassif[47]>       <LearnerClassifRpart[36]> <ResamplingCV[19]>\n## 3: <TaskClassif[47]> <LearnerClassifFeatureless[36]> <ResamplingCV[19]>\n## 4: <TaskClassif[47]>      <LearnerClassifRanger[36]> <ResamplingCV[19]>\n## 5: <TaskClassif[47]>       <LearnerClassifRpart[36]> <ResamplingCV[19]>\n## 6: <TaskClassif[47]> <LearnerClassifFeatureless[36]> <ResamplingCV[19]>\n## 7: <TaskClassif[47]>      <LearnerClassifRanger[36]> <ResamplingCV[19]>\n## 8: <TaskClassif[47]>       <LearnerClassifRpart[36]> <ResamplingCV[19]>\n## 9: <TaskClassif[47]> <LearnerClassifFeatureless[36]> <ResamplingCV[19]>"},{"path":"basics.html","id":"bm-exec","chapter":"2 Basics","heading":"2.6.2 Execution and Aggregation of Results","text":"benchmark design ready, can directly call benchmark():Note instantiate resampling instance manually.\nbenchmark_grid() took care us:\nresampling strategy instantiated task construction exhaustive grid.benchmarking done, can aggregate performance $aggregate().\ncreate two measures calculate AUC training set predict set:can aggregate results even .\nexample, might interested know learner performed best tasks simultaneously.\nSimply aggregating performances mean usually statistically sound.\nInstead, calculate rank statistic learner grouped task.\ncalculated ranks grouped learner aggregated data.table.\nSince AUC needs maximized, multiply values \\(-1\\) best learner rank \\(1\\).Unsurprisingly, featureless learner outperformed training test set.\nclassification forest also outperforms single classification tree.","code":"\n# execute the benchmark\nbmr = benchmark(design)\nmeasures = list(\n  msr(\"classif.auc\", predict_sets = \"train\", id = \"auc_train\"),\n  msr(\"classif.auc\", id = \"auc_test\")\n)\n\ntab = bmr$aggregate(measures)\nprint(tab)##    nr      resample_result       task_id          learner_id resampling_id\n## 1:  1 <ResampleResult[20]>          spam      classif.ranger            cv\n## 2:  2 <ResampleResult[20]>          spam       classif.rpart            cv\n## 3:  3 <ResampleResult[20]>          spam classif.featureless            cv\n## 4:  4 <ResampleResult[20]> german_credit      classif.ranger            cv\n## 5:  5 <ResampleResult[20]> german_credit       classif.rpart            cv\n## 6:  6 <ResampleResult[20]> german_credit classif.featureless            cv\n## 7:  7 <ResampleResult[20]>         sonar      classif.ranger            cv\n## 8:  8 <ResampleResult[20]>         sonar       classif.rpart            cv\n## 9:  9 <ResampleResult[20]>         sonar classif.featureless            cv\n##    iters auc_train auc_test\n## 1:     3    0.9994   0.9858\n## 2:     3    0.9104   0.9026\n## 3:     3    0.5000   0.5000\n## 4:     3    0.9986   0.7944\n## 5:     3    0.8143   0.7012\n## 6:     3    0.5000   0.5000\n## 7:     3    1.0000   0.9326\n## 8:     3    0.9129   0.7478\n## 9:     3    0.5000   0.5000\nlibrary(\"data.table\")\n# group by levels of task_id, return columns:\n# - learner_id\n# - rank of col '-auc_train' (per level of learner_id)\n# - rank of col '-auc_test' (per level of learner_id)\nranks = tab[, .(learner_id, rank_train = rank(-auc_train), rank_test = rank(-auc_test)), by = task_id]\nprint(ranks)##          task_id          learner_id rank_train rank_test\n## 1:          spam      classif.ranger          1         1\n## 2:          spam       classif.rpart          2         2\n## 3:          spam classif.featureless          3         3\n## 4: german_credit      classif.ranger          1         1\n## 5: german_credit       classif.rpart          2         2\n## 6: german_credit classif.featureless          3         3\n## 7:         sonar      classif.ranger          1         1\n## 8:         sonar       classif.rpart          2         2\n## 9:         sonar classif.featureless          3         3\n# group by levels of learner_id, return columns:\n# - mean rank of col 'rank_train' (per level of learner_id)\n# - mean rank of col 'rank_test' (per level of learner_id)\nranks = ranks[, .(mrank_train = mean(rank_train), mrank_test = mean(rank_test)), by = learner_id]\n\n# print the final table, ordered by mean rank of AUC test\nranks[order(mrank_test)]##             learner_id mrank_train mrank_test\n## 1:      classif.ranger           1          1\n## 2:       classif.rpart           2          2\n## 3: classif.featureless           3          3"},{"path":"basics.html","id":"autoplot-benchmarkresult","chapter":"2 Basics","heading":"2.6.3 Plotting Benchmark Results","text":"Analogously plotting tasks, predictions resample results, mlr3viz also provides autoplot() method benchmark results.can also plot ROC curves.\n, first need filter BenchmarkResult contain single Task:available plot types listed manual page autoplot.BenchmarkResult().","code":"\nautoplot(bmr) + ggplot2::theme(axis.text.x = ggplot2::element_text(angle = 45, hjust = 1))\nbmr_small = bmr$clone()$filter(task_id = \"german_credit\")\nautoplot(bmr_small, type = \"roc\")"},{"path":"basics.html","id":"bm-resamp","chapter":"2 Basics","heading":"2.6.4 Extracting ResampleResults","text":"BenchmarkResult object essentially collection multiple ResampleResult objects.\nstored column aggregated data.table(), can easily extract :can now investigate resampling even single resampling iterations using one approaches shown previous section:","code":"\ntab = bmr$aggregate(measures)\nrr = tab[task_id == \"german_credit\" & learner_id == \"classif.ranger\"]$resample_result[[1]]\nprint(rr)## <ResampleResult> of 3 iterations\n## * Task: german_credit\n## * Learner: classif.ranger\n## * Warnings: 0 in 0 iterations\n## * Errors: 0 in 0 iterations\nmeasure = msr(\"classif.auc\")\nrr$aggregate(measure)## classif.auc \n##      0.7944\n# get the iteration with worst AUC\nperf = rr$score(measure)\ni = which.min(perf$classif.auc)\n\n# get the corresponding learner and train set\nprint(rr$learners[[i]])## <LearnerClassifRanger:classif.ranger>\n## * Model: -\n## * Parameters: num.threads=1\n## * Packages: ranger\n## * Predict Type: prob\n## * Feature types: logical, integer, numeric, character, factor, ordered\n## * Properties: importance, multiclass, oob_error, twoclass, weights\nhead(rr$resampling$train_set(i))## [1]  4  5  6  7  9 16"},{"path":"basics.html","id":"converting-and-merging","chapter":"2 Basics","heading":"2.6.5 Converting and Merging","text":"ResampleResult can casted BenchmarkResult using converter as_benchmark_result().\nAdditionally, two BenchmarkResults can merged larger result object.","code":"\ntask = tsk(\"iris\")\nresampling = rsmp(\"holdout\")$instantiate(task)\n\nrr1 = resample(task, lrn(\"classif.rpart\"), resampling)\nrr2 = resample(task, lrn(\"classif.featureless\"), resampling)\n\n# Cast both ResampleResults to BenchmarkResults\nbmr1 = as_benchmark_result(rr1)\nbmr2 = as_benchmark_result(rr2)\n\n# Merge 2nd BMR into the first BMR\nbmr1$combine(bmr2)\n\nbmr1## <BenchmarkResult> of 2 rows with 2 resampling runs\n##  nr task_id          learner_id resampling_id iters warnings errors\n##   1    iris       classif.rpart       holdout     1        0      0\n##   2    iris classif.featureless       holdout     1        0      0"},{"path":"basics.html","id":"binary-classification","chapter":"2 Basics","heading":"2.7 Binary classification","text":"Classification problems target variable containing two classes called “binary”.\nbinary target variables, can specify positive class within classification task object task creation.\nexplicitly set construction, positive class defaults first level target variable.","code":"\n# during construction\ndata(\"Sonar\", package = \"mlbench\")\ntask = as_task_classif(Sonar, target = \"Class\", positive = \"R\")\n\n# switch positive class to level 'M'\ntask$positive = \"M\""},{"path":"basics.html","id":"binary-roc","chapter":"2 Basics","heading":"2.7.1 ROC Curve and Thresholds","text":"ROC Analysis, stands “receiver operating characteristics”, subfield machine learning studies evaluation binary prediction systems.\nsaw earlier one can retrieve confusion matrix Prediction accessing $confusion field:confusion matrix contains counts correct incorrect class assignments, grouped class labels.\ncolumns illustrate true (observed) labels rows display predicted labels.\npositive always first row column confusion matrix.\nThus, element \\(C_{11}\\) number times model predicted positive class right .\nAnalogously, element \\(C_{22}\\) number times model predicted negative class also right .\nelements diagonal called True Positives (TP) True Negatives (TN).\nelement \\(C_{12}\\) number times falsely predicted positive label, called False Positives (FP).\nelement \\(C_{21}\\) called False Negatives (FN).can now normalize rows columns confusion matrix derive several informative metrics:True Positive Rate (TPR): many true positives predict positive?True Negative Rate (TNR): many true negatives predict negative?Positive Predictive Value PPV: predict positive likely true positive?Negative Predictive Value NPV: predict negative likely true negative?Source: WikipediaIt difficult achieve high TPR low FPR conjunction, one uses constructing ROC Curve.\ncharacterize classifier TPR FPR values plot coordinate system.\nbest classifier lies top-left corner.\nworst classifier lies diagonal.\n\nClassifiers lying diagonal produce random labels (different proportions).\npositive \\(x\\) randomly classified 25% “positive”, get TPR 0.25.\nassign negative \\(x\\) randomly “positive” get FPR 0.25.\npractice, never obtain classifier diagonal, inverting predicted labels result reflection diagonal.\nscoring classifier model produces scores probabilities, instead discrete labels.\nobtain probabilities learner mlr3, set predict_type = \"prob\" ref(\"LearnerClassif\").\nWhether classifier can predict probabilities given $predict_types field.\nThresholding flexibly converts measured probabilities labels.\nPredict \\(1\\) (positive class) \\(\\hat{f}(x) > \\tau\\) else predict \\(0\\).\nNormally, one use \\(\\tau = 0.5\\) convert probabilities labels, imbalanced cost-sensitive situations another threshold suitable.\nthresholding, metric defined labels can used.mlr3 prediction objects, ROC curve can easily created mlr3viz relies precrec calculate plot ROC curves:","code":"\nlearner = lrn(\"classif.rpart\", predict_type = \"prob\")\npred = learner$train(task)$predict(task)\nC = pred$confusion\nprint(C)##         truth\n## response  M  R\n##        M 95 10\n##        R 16 87\nlibrary(\"mlr3viz\")\n\n# TPR vs FPR / Sensitivity vs (1 - Specificity)\nautoplot(pred, type = \"roc\")\n# Precision vs Recall\nautoplot(pred, type = \"prc\")"},{"path":"basics.html","id":"threshold-tuning","chapter":"2 Basics","heading":"2.7.2 Threshold Tuning","text":"Learners can predict probability positive class usually use simple rule determine predicted class label: probability exceeds threshold \\(t = 0.5\\), pick positive label, select negative label otherwise.\nmodel well calibrated class labels heavily unbalanced, selecting different threshold can help improve predictive performance w.r.t. chosen performance measure., change threshold \\(t = 0.2\\), improving True Positive Rate (TPR).\nNote new threshold observations positive class get correctly classified positive label, time True Negative Rate (TNR) decreases.\nDepending application, may desired trade-.Thresholds can also tuned mlr3pipelines package, .e. using PipeOpTuneThreshold.","code":"\nmeasures = msrs(c(\"classif.tpr\", \"classif.tnr\"))\npred$confusion##         truth\n## response  M  R\n##        M 95 10\n##        R 16 87\npred$score(measures)## classif.tpr classif.tnr \n##      0.8559      0.8969\npred$set_threshold(0.2)\npred$confusion##         truth\n## response   M   R\n##        M 104  25\n##        R   7  72\npred$score(measures)## classif.tpr classif.tnr \n##      0.9369      0.7423"},{"path":"optimization.html","id":"optimization","chapter":"3 Model Optimization","heading":"3 Model Optimization","text":"Model TuningMachine learning algorithms default values set hyperparameters.\nIrrespective, hyperparameters need changed user achieve optimal performance given dataset.\nmanual selection hyperparameter values recommended approach rarely leads best performance.\nsubstantiate validity selected hyperparameters (= tuning), data-driven optimization recommended.\norder tune machine learning algorithm, one specify (1) search space, (2) optimization algorithm (aka tuning method), (3) evaluation method, .e., resampling strategy (4) performance measure.summary, sub-chapter tuning illustrates :undertake empirically sound hyperparameter selectionselect optimizing algorithmwrite search spaces conciselytrigger tuningautomate tuningThis sub-chapter also requires package mlr3tuning, extension package supports hyperparameter tuning.Feature SelectionThe second part chapter explains feature selection, also known variable selection.\nFeature selection process finding subset relevant features data.\nreasons perform selection:enhance interpretability model,speed model fitting orimprove learner performance reducing noise data.book focus mainly last aspect.\nDifferent approaches exist identify relevant features.\nsub-chapter feature selection, emphasize three methods:Filter algorithms select features independently learner according score.Variable importance filters select features important according learner.Wrapper methods iteratively select features optimize performance measure.Note, filters require learner.\nVariable importance filters require learner can calculate feature importance values trained.\nobtained importance values can used subset data, can used train learner.\nWrapper methods can used learner need train learner multiple times.Nested ResamplingIn order get good estimate generalization performance avoid data leakage, outer (performance) inner (tuning/feature selection) resampling process necessary.\nfollowing features discussed chapter:Inner outer resampling strategies nested resamplingThe execution nested resamplingThe evaluation executed resampling iterationsThis sub-chapter provide instructions implement nested resampling, accounting inner outer resampling mlr3.","code":""},{"path":"optimization.html","id":"tuning","chapter":"3 Model Optimization","heading":"3.1 Hyperparameter Tuning","text":"Hyperparameters second-order parameters machine learning models , often explicitly optimized model estimation process, can important impact outcome predictive performance model.\nTypically, hyperparameters fixed training model.\nHowever, output model can sensitive specification hyperparameters, often recommended make informed decision hyperparameter settings may yield better model performance.\nmany cases, hyperparameter settings may chosen priori, can advantageous try different settings fitting model training data.\nprocess often called model ‘tuning’.Hyperparameter tuning supported via mlr3tuning extension package.\ncan find illustration process:heart mlr3tuning R6 classes:TuningInstanceSingleCrit, TuningInstanceMultiCrit: two classes describe tuning problem store results.Tuner: class base class implementations tuning algorithms.","code":""},{"path":"optimization.html","id":"tuning-optimization","chapter":"3 Model Optimization","heading":"3.1.1 The TuningInstance* Classes","text":"following sub-section examines optimization simple classification tree Pima Indian Diabetes data set.use classification tree rpart choose subset hyperparameters want tune.\noften referred “tuning space”., opt tune two parameters:complexity cpThe termination criterion minsplitThe tuning space needs bounded, therefore one set lower upper bounds:Next, need specify evaluate performance.\n, need choose resampling strategy performance measure.Finally, one select budget available, solve tuning instance.\ndone selecting one available Terminators:Terminate given time (TerminatorClockTime)Terminate given amount iterations (TerminatorEvals)Terminate specific performance reached (TerminatorPerfReached)Terminate tuning improve (TerminatorStagnation)combination fashion (TerminatorCombo)short introduction, specify budget 20 evaluations put everything together TuningInstanceSingleCrit:start tuning, still need select optimization take place.\nwords, need choose optimization algorithm via Tuner class.","code":"\nlibrary(\"mlr3verse\")\ntask = tsk(\"pima\")\nprint(task)## <TaskClassif:pima> (768 x 9)\n## * Target: diabetes\n## * Properties: twoclass\n## * Features (8):\n##   - dbl (8): age, glucose, insulin, mass, pedigree, pregnant, pressure,\n##     triceps\nlearner = lrn(\"classif.rpart\")\nlearner$param_set## <ParamSet>\n##                 id    class lower upper nlevels        default value\n##  1:             cp ParamDbl     0     1     Inf           0.01      \n##  2:     keep_model ParamLgl    NA    NA       2          FALSE      \n##  3:     maxcompete ParamInt     0   Inf     Inf              4      \n##  4:       maxdepth ParamInt     1    30      30             30      \n##  5:   maxsurrogate ParamInt     0   Inf     Inf              5      \n##  6:      minbucket ParamInt     1   Inf     Inf <NoDefault[3]>      \n##  7:       minsplit ParamInt     1   Inf     Inf             20      \n##  8: surrogatestyle ParamInt     0     1       2              0      \n##  9:   usesurrogate ParamInt     0     2       3              2      \n## 10:           xval ParamInt     0   Inf     Inf             10     0\nsearch_space = ps(\n  cp = p_dbl(lower = 0.001, upper = 0.1),\n  minsplit = p_int(lower = 1, upper = 10)\n)\nsearch_space## <ParamSet>\n##          id    class lower upper nlevels        default value\n## 1:       cp ParamDbl 0.001   0.1     Inf <NoDefault[3]>      \n## 2: minsplit ParamInt 1.000  10.0      10 <NoDefault[3]>\nhout = rsmp(\"holdout\")\nmeasure = msr(\"classif.ce\")\nlibrary(\"mlr3tuning\")## Loading required package: paradox\nevals20 = trm(\"evals\", n_evals = 20)\n\ninstance = TuningInstanceSingleCrit$new(\n  task = task,\n  learner = learner,\n  resampling = hout,\n  measure = measure,\n  search_space = search_space,\n  terminator = evals20\n)\ninstance## <TuningInstanceSingleCrit>\n## * State:  Not optimized\n## * Objective: <ObjectiveTuning:classif.rpart_on_pima>\n## * Search Space:\n## <ParamSet>\n##          id    class lower upper nlevels        default value\n## 1:       cp ParamDbl 0.001   0.1     Inf <NoDefault[3]>      \n## 2: minsplit ParamInt 1.000  10.0      10 <NoDefault[3]>      \n## * Terminator: <TerminatorEvals>\n## * Terminated: FALSE\n## * Archive:\n## <ArchiveTuning>\n## Null data.table (0 rows and 0 cols)"},{"path":"optimization.html","id":"tuning-algorithms","chapter":"3 Model Optimization","heading":"3.1.2 The Tuner Class","text":"following algorithms currently implemented mlr3tuning:Grid Search (TunerGridSearch)Random Search (TunerRandomSearch) (Bergstra Bengio 2012)Generalized Simulated Annealing (TunerGenSA)Non-Linear Optimization (TunerNLoptr)example, use simple grid search grid resolution 5.Since numeric parameters, TunerGridSearch create equidistant grid respective upper lower bounds.\ntwo hyperparameters resolution 5, two-dimensional grid consists \\(5^2 = 25\\) configurations.\nconfiguration serves hyperparameter setting previously defined Learner fitted task using provided Resampling.\nconfigurations examined tuner (random order), either configurations evaluated Terminator signals budget exhausted.","code":"\ntuner = tnr(\"grid_search\", resolution = 5)"},{"path":"optimization.html","id":"tuning-triggering","chapter":"3 Model Optimization","heading":"3.1.3 Triggering the Tuning","text":"start tuning, simply pass TuningInstanceSingleCrit $optimize() method initialized Tuner.\ntuner proceeds follows:Tuner proposes least one hyperparameter configuration (Tuner may propose multiple points improve parallelization, can controlled via setting batch_size).configuration, given Learner fitted Task using provided Resampling.\nevaluations stored archive TuningInstanceSingleCrit.Terminator queried budget exhausted.\nbudget exhausted, restart 1) .Determine configuration best observed performance.Store best configurations result instance object.\nbest hyperparameter settings ($result_learner_param_vals) corresponding measured performance ($result_y) can accessed instance.One can investigate resamplings undertaken, stored archive TuningInstanceSingleCrit can accessed using .data.table():sum, grid search evaluated 20/25 different configurations grid random order Terminator stopped tuning.associated resampling iterations can accessed BenchmarkResult:uhash column links resampling iterations evaluated configurations stored instance$archive$data. allows e.g. score included ResampleResults different measure.Now optimized hyperparameters can take previously created Learner, set returned hyperparameters train full dataset.trained model can now used make prediction external data.\nNote predicting observations present task, avoided.\nmodel seen observations already tuning therefore results statistically biased.\nHence, resulting performance measure -optimistic.\nInstead, get statistically unbiased performance estimates current task, nested resampling required.","code":"\ntuner$optimize(instance)## INFO  [14:21:46.366] [bbotk] Starting to optimize 2 parameter(s) with '<OptimizerGridSearch>' and '<TerminatorEvals> [n_evals=20, k=0]' \n## INFO  [14:21:46.402] [bbotk] Evaluating 1 configuration(s) \n## INFO  [14:21:46.579] [bbotk] Result of batch 1: \n## INFO  [14:21:46.581] [bbotk]      cp minsplit classif.ce runtime_learners \n## INFO  [14:21:46.581] [bbotk]  0.0505       10       0.25            0.017 \n## INFO  [14:21:46.581] [bbotk]                                 uhash \n## INFO  [14:21:46.581] [bbotk]  063add42-bb3b-4e95-bea0-5949ff3db42c \n## INFO  [14:21:46.583] [bbotk] Evaluating 1 configuration(s) \n## INFO  [14:21:46.685] [bbotk] Result of batch 2: \n## INFO  [14:21:46.687] [bbotk]      cp minsplit classif.ce runtime_learners \n## INFO  [14:21:46.687] [bbotk]  0.0505        1       0.25            0.009 \n## INFO  [14:21:46.687] [bbotk]                                 uhash \n## INFO  [14:21:46.687] [bbotk]  f7a9dbb3-adc0-47f7-9f7f-bce6a868901d \n## INFO  [14:21:46.689] [bbotk] Evaluating 1 configuration(s) \n## INFO  [14:21:46.779] [bbotk] Result of batch 3: \n## INFO  [14:21:46.781] [bbotk]      cp minsplit classif.ce runtime_learners \n## INFO  [14:21:46.781] [bbotk]  0.0505        3       0.25            0.009 \n## INFO  [14:21:46.781] [bbotk]                                 uhash \n## INFO  [14:21:46.781] [bbotk]  7e16fb27-e9ee-4242-a5cb-24ab96448c54 \n## INFO  [14:21:46.782] [bbotk] Evaluating 1 configuration(s) \n## INFO  [14:21:46.878] [bbotk] Result of batch 4: \n## INFO  [14:21:46.879] [bbotk]       cp minsplit classif.ce runtime_learners \n## INFO  [14:21:46.879] [bbotk]  0.02575        8     0.2148            0.009 \n## INFO  [14:21:46.879] [bbotk]                                 uhash \n## INFO  [14:21:46.879] [bbotk]  14dd5c15-2660-403c-bd45-930364d7b8e0 \n## INFO  [14:21:46.881] [bbotk] Evaluating 1 configuration(s) \n## INFO  [14:21:46.971] [bbotk] Result of batch 5: \n## INFO  [14:21:46.973] [bbotk]       cp minsplit classif.ce runtime_learners \n## INFO  [14:21:46.973] [bbotk]  0.07525        5       0.25             0.01 \n## INFO  [14:21:46.973] [bbotk]                                 uhash \n## INFO  [14:21:46.973] [bbotk]  0c498a40-916e-4407-a57e-6ac55ca26140 \n## INFO  [14:21:46.975] [bbotk] Evaluating 1 configuration(s) \n## INFO  [14:21:47.068] [bbotk] Result of batch 6: \n## INFO  [14:21:47.070] [bbotk]       cp minsplit classif.ce runtime_learners \n## INFO  [14:21:47.070] [bbotk]  0.07525        8       0.25            0.009 \n## INFO  [14:21:47.070] [bbotk]                                 uhash \n## INFO  [14:21:47.070] [bbotk]  76b60a6b-26f0-485e-8193-4bf34e23fb6f \n## INFO  [14:21:47.078] [bbotk] Evaluating 1 configuration(s) \n## INFO  [14:21:47.164] [bbotk] Result of batch 7: \n## INFO  [14:21:47.166] [bbotk]   cp minsplit classif.ce runtime_learners                                uhash \n## INFO  [14:21:47.166] [bbotk]  0.1        5       0.25            0.009 fd978152-4f4f-4e57-98e7-b262c98332ca \n## INFO  [14:21:47.167] [bbotk] Evaluating 1 configuration(s) \n## INFO  [14:21:47.263] [bbotk] Result of batch 8: \n## INFO  [14:21:47.265] [bbotk]     cp minsplit classif.ce runtime_learners \n## INFO  [14:21:47.265] [bbotk]  0.001        1     0.3008            0.011 \n## INFO  [14:21:47.265] [bbotk]                                 uhash \n## INFO  [14:21:47.265] [bbotk]  547394f0-657f-452d-8801-6bba95e6d7bf \n## INFO  [14:21:47.266] [bbotk] Evaluating 1 configuration(s) \n## INFO  [14:21:47.443] [bbotk] Result of batch 9: \n## INFO  [14:21:47.445] [bbotk]     cp minsplit classif.ce runtime_learners \n## INFO  [14:21:47.445] [bbotk]  0.001        8     0.3008            0.011 \n## INFO  [14:21:47.445] [bbotk]                                 uhash \n## INFO  [14:21:47.445] [bbotk]  45ddb76e-9907-454d-a18b-6cc16be789fa \n## INFO  [14:21:47.447] [bbotk] Evaluating 1 configuration(s) \n## INFO  [14:21:47.542] [bbotk] Result of batch 10: \n## INFO  [14:21:47.544] [bbotk]       cp minsplit classif.ce runtime_learners \n## INFO  [14:21:47.544] [bbotk]  0.07525        1       0.25             0.01 \n## INFO  [14:21:47.544] [bbotk]                                 uhash \n## INFO  [14:21:47.544] [bbotk]  d52c48ac-10fa-4f62-b948-4328c68c5790 \n## INFO  [14:21:47.546] [bbotk] Evaluating 1 configuration(s) \n## INFO  [14:21:47.636] [bbotk] Result of batch 11: \n## INFO  [14:21:47.638] [bbotk]   cp minsplit classif.ce runtime_learners                                uhash \n## INFO  [14:21:47.638] [bbotk]  0.1        3       0.25            0.015 9fca5392-f1cc-4ff1-a337-79d0b543bb6c \n## INFO  [14:21:47.639] [bbotk] Evaluating 1 configuration(s) \n## INFO  [14:21:47.727] [bbotk] Result of batch 12: \n## INFO  [14:21:47.728] [bbotk]      cp minsplit classif.ce runtime_learners \n## INFO  [14:21:47.728] [bbotk]  0.0505        5       0.25            0.009 \n## INFO  [14:21:47.728] [bbotk]                                 uhash \n## INFO  [14:21:47.728] [bbotk]  2b70991a-1b2b-415b-a6bf-3b8f15f671a1 \n## INFO  [14:21:47.730] [bbotk] Evaluating 1 configuration(s) \n## INFO  [14:21:47.822] [bbotk] Result of batch 13: \n## INFO  [14:21:47.824] [bbotk]     cp minsplit classif.ce runtime_learners \n## INFO  [14:21:47.824] [bbotk]  0.001        5      0.293            0.011 \n## INFO  [14:21:47.824] [bbotk]                                 uhash \n## INFO  [14:21:47.824] [bbotk]  1c10594d-82c7-4740-aa7d-26aff0525cc0 \n## INFO  [14:21:47.825] [bbotk] Evaluating 1 configuration(s) \n## INFO  [14:21:47.911] [bbotk] Result of batch 14: \n## INFO  [14:21:47.913] [bbotk]       cp minsplit classif.ce runtime_learners \n## INFO  [14:21:47.913] [bbotk]  0.02575        5     0.2148            0.008 \n## INFO  [14:21:47.913] [bbotk]                                 uhash \n## INFO  [14:21:47.913] [bbotk]  dd97cfc0-1c3e-4a53-afa7-4b7499ba37fc \n## INFO  [14:21:47.915] [bbotk] Evaluating 1 configuration(s) \n## INFO  [14:21:48.011] [bbotk] Result of batch 15: \n## INFO  [14:21:48.013] [bbotk]       cp minsplit classif.ce runtime_learners \n## INFO  [14:21:48.013] [bbotk]  0.02575        3     0.2148            0.009 \n## INFO  [14:21:48.013] [bbotk]                                 uhash \n## INFO  [14:21:48.013] [bbotk]  423587ef-fdc5-4a67-80fa-01d2c856a679 \n## INFO  [14:21:48.014] [bbotk] Evaluating 1 configuration(s) \n## INFO  [14:21:48.104] [bbotk] Result of batch 16: \n## INFO  [14:21:48.105] [bbotk]       cp minsplit classif.ce runtime_learners \n## INFO  [14:21:48.105] [bbotk]  0.07525       10       0.25            0.009 \n## INFO  [14:21:48.105] [bbotk]                                 uhash \n## INFO  [14:21:48.105] [bbotk]  8abdbab9-914c-4850-8a6d-888d26852a19 \n## INFO  [14:21:48.107] [bbotk] Evaluating 1 configuration(s) \n## INFO  [14:21:48.201] [bbotk] Result of batch 17: \n## INFO  [14:21:48.203] [bbotk]   cp minsplit classif.ce runtime_learners                                uhash \n## INFO  [14:21:48.203] [bbotk]  0.1        1       0.25            0.009 371d7ab6-69bf-4fe5-ba1f-b49468d4c8d0 \n## INFO  [14:21:48.205] [bbotk] Evaluating 1 configuration(s) \n## INFO  [14:21:48.295] [bbotk] Result of batch 18: \n## INFO  [14:21:48.297] [bbotk]       cp minsplit classif.ce runtime_learners \n## INFO  [14:21:48.297] [bbotk]  0.07525        3       0.25            0.009 \n## INFO  [14:21:48.297] [bbotk]                                 uhash \n## INFO  [14:21:48.297] [bbotk]  0ff48422-8552-490b-b5f4-60c65ae3c295 \n## INFO  [14:21:48.299] [bbotk] Evaluating 1 configuration(s) \n## INFO  [14:21:48.398] [bbotk] Result of batch 19: \n## INFO  [14:21:48.400] [bbotk]     cp minsplit classif.ce runtime_learners \n## INFO  [14:21:48.400] [bbotk]  0.001        3     0.2969            0.012 \n## INFO  [14:21:48.400] [bbotk]                                 uhash \n## INFO  [14:21:48.400] [bbotk]  eb6ead2b-d1c5-4428-bcf3-dbc91a8df1a7 \n## INFO  [14:21:48.402] [bbotk] Evaluating 1 configuration(s) \n## INFO  [14:21:48.492] [bbotk] Result of batch 20: \n## INFO  [14:21:48.494] [bbotk]       cp minsplit classif.ce runtime_learners \n## INFO  [14:21:48.494] [bbotk]  0.02575       10     0.2148            0.009 \n## INFO  [14:21:48.494] [bbotk]                                 uhash \n## INFO  [14:21:48.494] [bbotk]  1ac1273f-90b5-41ce-8672-4d673169185d \n## INFO  [14:21:48.499] [bbotk] Finished optimizing after 20 evaluation(s) \n## INFO  [14:21:48.500] [bbotk] Result: \n## INFO  [14:21:48.502] [bbotk]       cp minsplit learner_param_vals  x_domain classif.ce \n## INFO  [14:21:48.502] [bbotk]  0.02575        8          <list[3]> <list[2]>     0.2148##         cp minsplit learner_param_vals  x_domain classif.ce\n## 1: 0.02575        8          <list[3]> <list[2]>     0.2148\ninstance$result_learner_param_vals## $xval\n## [1] 0\n## \n## $cp\n## [1] 0.02575\n## \n## $minsplit\n## [1] 8\ninstance$result_y## classif.ce \n##     0.2148\nas.data.table(instance$archive)##          cp minsplit classif.ce x_domain_cp x_domain_minsplit runtime_learners\n##  1: 0.05050       10     0.2500     0.05050                10            0.017\n##  2: 0.05050        1     0.2500     0.05050                 1            0.009\n##  3: 0.05050        3     0.2500     0.05050                 3            0.009\n##  4: 0.02575        8     0.2148     0.02575                 8            0.009\n##  5: 0.07525        5     0.2500     0.07525                 5            0.010\n##  6: 0.07525        8     0.2500     0.07525                 8            0.009\n##  7: 0.10000        5     0.2500     0.10000                 5            0.009\n##  8: 0.00100        1     0.3008     0.00100                 1            0.011\n##  9: 0.00100        8     0.3008     0.00100                 8            0.011\n## 10: 0.07525        1     0.2500     0.07525                 1            0.010\n## 11: 0.10000        3     0.2500     0.10000                 3            0.015\n## 12: 0.05050        5     0.2500     0.05050                 5            0.009\n## 13: 0.00100        5     0.2930     0.00100                 5            0.011\n## 14: 0.02575        5     0.2148     0.02575                 5            0.008\n## 15: 0.02575        3     0.2148     0.02575                 3            0.009\n## 16: 0.07525       10     0.2500     0.07525                10            0.009\n## 17: 0.10000        1     0.2500     0.10000                 1            0.009\n## 18: 0.07525        3     0.2500     0.07525                 3            0.009\n## 19: 0.00100        3     0.2969     0.00100                 3            0.012\n## 20: 0.02575       10     0.2148     0.02575                10            0.009\n##               timestamp batch_nr      resample_result\n##  1: 2021-09-19 14:21:46        1 <ResampleResult[20]>\n##  2: 2021-09-19 14:21:46        2 <ResampleResult[20]>\n##  3: 2021-09-19 14:21:46        3 <ResampleResult[20]>\n##  4: 2021-09-19 14:21:46        4 <ResampleResult[20]>\n##  5: 2021-09-19 14:21:46        5 <ResampleResult[20]>\n##  6: 2021-09-19 14:21:47        6 <ResampleResult[20]>\n##  7: 2021-09-19 14:21:47        7 <ResampleResult[20]>\n##  8: 2021-09-19 14:21:47        8 <ResampleResult[20]>\n##  9: 2021-09-19 14:21:47        9 <ResampleResult[20]>\n## 10: 2021-09-19 14:21:47       10 <ResampleResult[20]>\n## 11: 2021-09-19 14:21:47       11 <ResampleResult[20]>\n## 12: 2021-09-19 14:21:47       12 <ResampleResult[20]>\n## 13: 2021-09-19 14:21:47       13 <ResampleResult[20]>\n## 14: 2021-09-19 14:21:47       14 <ResampleResult[20]>\n## 15: 2021-09-19 14:21:48       15 <ResampleResult[20]>\n## 16: 2021-09-19 14:21:48       16 <ResampleResult[20]>\n## 17: 2021-09-19 14:21:48       17 <ResampleResult[20]>\n## 18: 2021-09-19 14:21:48       18 <ResampleResult[20]>\n## 19: 2021-09-19 14:21:48       19 <ResampleResult[20]>\n## 20: 2021-09-19 14:21:48       20 <ResampleResult[20]>\ninstance$archive$benchmark_result## <BenchmarkResult> of 20 rows with 20 resampling runs\n##  nr task_id    learner_id resampling_id iters warnings errors\n##   1    pima classif.rpart       holdout     1        0      0\n##   2    pima classif.rpart       holdout     1        0      0\n##   3    pima classif.rpart       holdout     1        0      0\n##   4    pima classif.rpart       holdout     1        0      0\n##   5    pima classif.rpart       holdout     1        0      0\n##   6    pima classif.rpart       holdout     1        0      0\n##   7    pima classif.rpart       holdout     1        0      0\n##   8    pima classif.rpart       holdout     1        0      0\n##   9    pima classif.rpart       holdout     1        0      0\n##  10    pima classif.rpart       holdout     1        0      0\n##  11    pima classif.rpart       holdout     1        0      0\n##  12    pima classif.rpart       holdout     1        0      0\n##  13    pima classif.rpart       holdout     1        0      0\n##  14    pima classif.rpart       holdout     1        0      0\n##  15    pima classif.rpart       holdout     1        0      0\n##  16    pima classif.rpart       holdout     1        0      0\n##  17    pima classif.rpart       holdout     1        0      0\n##  18    pima classif.rpart       holdout     1        0      0\n##  19    pima classif.rpart       holdout     1        0      0\n##  20    pima classif.rpart       holdout     1        0      0\ninstance$archive$benchmark_result$score(msr(\"classif.acc\"))##                                    uhash nr              task task_id\n##  1: 063add42-bb3b-4e95-bea0-5949ff3db42c  1 <TaskClassif[47]>    pima\n##  2: f7a9dbb3-adc0-47f7-9f7f-bce6a868901d  2 <TaskClassif[47]>    pima\n##  3: 7e16fb27-e9ee-4242-a5cb-24ab96448c54  3 <TaskClassif[47]>    pima\n##  4: 14dd5c15-2660-403c-bd45-930364d7b8e0  4 <TaskClassif[47]>    pima\n##  5: 0c498a40-916e-4407-a57e-6ac55ca26140  5 <TaskClassif[47]>    pima\n##  6: 76b60a6b-26f0-485e-8193-4bf34e23fb6f  6 <TaskClassif[47]>    pima\n##  7: fd978152-4f4f-4e57-98e7-b262c98332ca  7 <TaskClassif[47]>    pima\n##  8: 547394f0-657f-452d-8801-6bba95e6d7bf  8 <TaskClassif[47]>    pima\n##  9: 45ddb76e-9907-454d-a18b-6cc16be789fa  9 <TaskClassif[47]>    pima\n## 10: d52c48ac-10fa-4f62-b948-4328c68c5790 10 <TaskClassif[47]>    pima\n## 11: 9fca5392-f1cc-4ff1-a337-79d0b543bb6c 11 <TaskClassif[47]>    pima\n## 12: 2b70991a-1b2b-415b-a6bf-3b8f15f671a1 12 <TaskClassif[47]>    pima\n## 13: 1c10594d-82c7-4740-aa7d-26aff0525cc0 13 <TaskClassif[47]>    pima\n## 14: dd97cfc0-1c3e-4a53-afa7-4b7499ba37fc 14 <TaskClassif[47]>    pima\n## 15: 423587ef-fdc5-4a67-80fa-01d2c856a679 15 <TaskClassif[47]>    pima\n## 16: 8abdbab9-914c-4850-8a6d-888d26852a19 16 <TaskClassif[47]>    pima\n## 17: 371d7ab6-69bf-4fe5-ba1f-b49468d4c8d0 17 <TaskClassif[47]>    pima\n## 18: 0ff48422-8552-490b-b5f4-60c65ae3c295 18 <TaskClassif[47]>    pima\n## 19: eb6ead2b-d1c5-4428-bcf3-dbc91a8df1a7 19 <TaskClassif[47]>    pima\n## 20: 1ac1273f-90b5-41ce-8672-4d673169185d 20 <TaskClassif[47]>    pima\n##                       learner    learner_id              resampling\n##  1: <LearnerClassifRpart[36]> classif.rpart <ResamplingHoldout[19]>\n##  2: <LearnerClassifRpart[36]> classif.rpart <ResamplingHoldout[19]>\n##  3: <LearnerClassifRpart[36]> classif.rpart <ResamplingHoldout[19]>\n##  4: <LearnerClassifRpart[36]> classif.rpart <ResamplingHoldout[19]>\n##  5: <LearnerClassifRpart[36]> classif.rpart <ResamplingHoldout[19]>\n##  6: <LearnerClassifRpart[36]> classif.rpart <ResamplingHoldout[19]>\n##  7: <LearnerClassifRpart[36]> classif.rpart <ResamplingHoldout[19]>\n##  8: <LearnerClassifRpart[36]> classif.rpart <ResamplingHoldout[19]>\n##  9: <LearnerClassifRpart[36]> classif.rpart <ResamplingHoldout[19]>\n## 10: <LearnerClassifRpart[36]> classif.rpart <ResamplingHoldout[19]>\n## 11: <LearnerClassifRpart[36]> classif.rpart <ResamplingHoldout[19]>\n## 12: <LearnerClassifRpart[36]> classif.rpart <ResamplingHoldout[19]>\n## 13: <LearnerClassifRpart[36]> classif.rpart <ResamplingHoldout[19]>\n## 14: <LearnerClassifRpart[36]> classif.rpart <ResamplingHoldout[19]>\n## 15: <LearnerClassifRpart[36]> classif.rpart <ResamplingHoldout[19]>\n## 16: <LearnerClassifRpart[36]> classif.rpart <ResamplingHoldout[19]>\n## 17: <LearnerClassifRpart[36]> classif.rpart <ResamplingHoldout[19]>\n## 18: <LearnerClassifRpart[36]> classif.rpart <ResamplingHoldout[19]>\n## 19: <LearnerClassifRpart[36]> classif.rpart <ResamplingHoldout[19]>\n## 